{"neuron_per_layer": [2500, 64, 32, 16, 8, 3], "layers": 5, "weights": [[], [[0.0, -0.5356391065773898, -0.1195056809873813, -0.7034223668449922, 0.15910726113755377, 0.04543192027980438, 0.609679004901374, 0.29658953187273007, -0.22147878332209858, -0.6784638660921835, 0.9808429695252535, 0.20474115735395598, -0.7069642996510107, 0.5727377085179948, 0.06869765612993385, -0.870567118473038, -0.44636425346157294, 0.5275791354641434, 0.41163281409238706, 0.33028443328007046, 0.03423823748047218, 0.5556536498179678, 0.26710126147920604, -0.9817294030825766, -0.1951582974108165, -0.6308676182765657, -0.9614731385179707, 0.25909953808730857, -0.7495910165490749, 0.9386667187998147, 0.6672636380870728, -0.3362129931222909, -0.7591009575358882, -0.21301499307710658, 0.3434491879087598, -0.1357922471728436, -0.08377343698290105, -0.32706951063700634, 0.7966878800654268, 0.33592976100795435, 0.725235402825435, -0.11517933664412441, -0.357720968383577, -0.757474896392062, -0.8309758083530241, -0.8803285984342215, -0.18464206933245114, 0.2881113702132043, -0.8265764064095183, -0.48900313401273027, 0.6911758978602568, -0.0016268731140120884, 0.4684400721898104, 0.16179186920957506, 0.5668462339132712, 0.5916368104741274, -0.5977679803622403, -0.11785846628842186, -0.15477889030477252, 0.12499996170073518, 0.7769776743500699, -0.8201282076149328, 0.1763648555041269, 0.2890576715017211, 0.7808568957066264], [0.0, 0.1568342662739938, -0.11045280901220994, 0.10924567829911386, -0.9669815792209512, 0.037353005709395405, 0.04437049379648654, 0.8382309923789939, 0.8557217607971865, 0.7820740294552092, 0.49585534545256976, 0.676420854241787, -0.6479758099839631, 0.8738670825460975, -0.9103191012525306, 0.958067293297214, -0.9056533134609138, -0.70081657572921, 0.7453036847693145, -0.6878304834618669, -0.03415476948960483, -0.12151466205258381, 0.8746467491480999, -0.9928115730574245, 0.48934118440912366, -0.46905754692358254, -0.14673578750015376, -0.16574925584052794, -0.6342973774394418, 0.8386356594261596, 0.3679392092577529, -0.29322615374109723, 0.864527624751383, -0.6018766300227917, -0.6448361929416867, 0.50968305125819, -0.925617467889872, 0.47091937176294274, 0.8292049368686024, 0.014007015592262912, 0.9693782173136792, -0.7857088302710346, 0.9753642495432787, 0.5075727707017824, -0.20941953743067374, -0.6867164686754025, -0.9352803956602291, 0.03346603961331023, -0.8803980373143436, -0.5025451646303066, -0.8707593978385144, 0.6073558238300573, -0.5783724519656652, 0.20265510752901877, 0.19170756795776264, -0.5768390958283185, 0.8369354406429754, 0.5548834533605653, -0.7599210648023792, 0.20885617821442864, -0.8652775415068027, -0.6094805278338119, -0.4384137961592624, 0.2708316988738345, -0.4596991936811174], [0.0, 0.7658171990783552, -0.5551275573562534, 0.06485009498784455, 0.1611527328819401, 0.5174757613034622, 0.6041495638005673, 0.6575254634096058, -0.5377195121168474, 0.9236638162415988, -0.4911193129115296, 0.6305811370218556, -0.6330771113723916, 0.6345324362220557, 0.15770665311760218, 0.6670204842321235, -0.4531739457853784, -0.08292541254091164, -0.11343757815241161, 0.7044067787235727, 0.9256958254654184, 0.6188775983568156, 0.7439686384264189, 0.16686455347193152, 0.9038378575182261, -0.7204236500451143, -0.9203381174986569, -0.757520496983621, -0.28555688750907776, -0.3609301445977824, -0.5356145955341504, -0.9530951950008086, 0.04372837886081375, 0.733390451507683, -0.438866246688186, 0.8916736776584092, -0.49999269182088857, -0.21312096076726342, -0.22987231332219155, -0.7325698224663477, -0.5292391794180051, 0.2983059273042924, 0.6924171964922404, 0.8857968408171494, -0.8821095819765405, 0.510082218189671, -0.5978692495006043, 0.5234284313664934, 0.35337437481910156, 0.6072914559820041, -0.8600184058977659, 0.0055573155257399, 0.17259872468283974, -0.8796135813189617, 0.6256315996481616, -0.6483265012514611, 0.3809039909208715, -0.7003891637444178, -0.26058505801636644, 0.7397530188005218, 0.24998410533861007, -0.6119174942314107, -0.9687476560792615, -0.4651465686239296, 0.18207957676979042], [0.0, -0.7571514509197634, -0.5920308807112459, -0.36376814951203323, -0.16688637421482516, 0.15128096899889834, -0.5099502670522406, -0.40252909397284337, 0.344296770796818, 0.4430169303349768, 0.2516773468868256, -0.6436913959569588, -0.11408550640290975, 0.23323294856668067, 0.364200735748627, -0.20935979370219512, -0.3861587498409548, -0.48434067687346927, -0.23657587588585538, 0.08123202388563093, 0.068088492689589, 0.10145970798470401, 0.8601706694299144, -0.16206685135258075, 0.9155849699313394, -0.2170140319375195, 0.9884320721136193, 0.8814483558608053, 0.3804794393727137, 0.2708011759933395, -0.10696065301589337, 0.3685886733647047, 0.4328859821086093, 0.2558062704410691, 0.7840212651418296, -0.685666424242411, -0.19053444635104427, -0.5917283652694513, 0.9643913069329051, 0.22024183433252414, -0.0287615950009293, -0.449642806248569, 0.47888390586794477, 0.30521721760459, -0.44200833532436723, -0.09017398674129268, -0.9708156494605414, 0.12509166159876664, 0.057541055987276865, -0.7680413600451825, 0.8381769028315897, 0.8052830534804014, -0.17215262140431692, -0.5220267745907551, -0.7433275606422077, -0.11651312138799698, 0.42539746385723337, 0.6597845881674643, 0.08692285199765436, -0.9713092330479453, 0.730801675696372, -0.2877474012784022, 0.6949562353388432, -0.5977109048353778, -0.24465614744362982], [0.0, 0.005145086124039763, -0.5954490946861409, 0.24952821292218058, 0.13452346930945117, 0.27989402013618764, -0.22806563428080573, -0.025926459457689024, 0.18988973927453948, -0.09698522982962555, 0.23393509055119538, 0.5557739775102547, -0.14070338068605473, -0.5124937391229504, 0.6214370452510246, -0.8101239794403213, 0.6954707302584948, 0.20155106603848913, 0.6481894862030068, 0.002309262632411328, -0.908432418043125, -0.11306463211806524, 0.7360032313977751, 0.6796252800574949, 0.4673364876276311, -0.6767055880386073, 0.6279080768821248, 0.4440660870192091, -0.6651010297028912, -0.3210781486297887, -0.6307791004015387, -0.9985124222886366, 0.3899679195753976, -0.730084758006676, -0.8003349162162793, 0.8951375891119718, -0.07656536045984298, -0.47733935944869804, 0.08932290719340093, -0.474738267608626, 0.4026441537256818, -0.18971316911187205, 0.06935775022332502, -0.09122289187962783, -0.056740862406354044, -0.8282153855739045, -0.13050430380626282, 0.7105272720555679, -0.6622276330392782, 0.5535569754233111, -0.39811536894980115, -0.33548070971469396, -0.7336743449636605, -0.5466170825969184, -0.07916355770378222, 0.1346221168457298, -0.39073046522488275, 0.48466726079329664, -0.31409973815185005, 0.3334467004854679, -0.28338721814459683, -0.3332861675017598, 0.5125058743623478, -0.9683183175960745, 0.6050856177289513], [0.0, 0.39795259399598965, 0.5580588928686333, -0.9034834173636435, -0.9189152395553934, -0.6674401016215591, -0.689323087648722, -0.18768962390583308, 0.19921779050887992, -0.5507071665643496, 0.5519536531677182, -0.7201017924929257, 0.1661845144536593, -0.6329108497511245, 0.001219738990809111, -0.5643247840680595, -0.8789111892590379, -0.15106881116192936, -0.08799728254833433, -0.25036527607960457, -0.48399504114248953, -0.4253833112513263, 0.5496172666094922, 0.6645288846766917, 0.1612420583626555, -0.9446228571346117, -0.10211501880165805, -0.5906288932655059, -0.802865288702192, 0.5164306705573629, 0.8491515272078781, -0.26045330786458093, 0.18545197797254154, 0.003428593498037829, 0.46283897464709345, 0.7148859195910298, 0.27539392674189633, -0.7032781718876185, 0.5100354434781048, 0.15706823387109078, 0.9449312230549942, 0.833426126063656, -0.3239453192088089, 0.17632417589823876, -0.020110997827746044, 0.05935864417296332, -0.4389423636706011, -0.33593167505094335, 0.9811574026477653, 0.9659829348217425, -0.9240079539491476, -0.06560615424147825, -0.07442972317547822, 0.39490981056038865, 0.6820600296896675, -0.27297735709904525, -0.8850177451541069, 0.35500142786428074, -0.5534436563264987, -0.8733682149333492, 0.5341131074052803, 0.5984942238660513, -0.7321705218455158, -0.5392870456943387, -0.28717030700594603], [0.0, -0.032849471474559154, 0.5577086541223841, -0.5770229292662745, -1.0107244405274587, -0.4016512478208448, -0.978336199849025, 0.04387924519533694, 0.6810663566433502, -0.05803461848437585, 0.05956284993016239, -0.3098111331161091, 0.3784138688866379, -0.7821124464441341, 0.3671565392687006, -0.11851207915412672, 0.7732792860047648, -0.9079049759416544, 0.5283150734587769, -0.785841888491818, 0.5510481523210232, -0.4883923162817555, 0.2989790738847464, -0.17366447999960546, -0.3588677697547551, 0.7232224687167805, -0.006187901892053102, -0.5274788901853845, 0.2865902565472142, -0.08188632324453624, 0.7168423115797936, -0.33003457870981473, -0.6485811285597882, -0.8890173571869684, -0.5203158687103968, -0.463705489683039, 0.4566029528057748, 0.9379016226525752, 0.9980918162097773, 0.12413746738227213, 0.37859242152919526, -0.20424439467339522, -0.5360081843412394, -0.591668886342174, 0.7048627011141555, 0.7740679472586408, -0.7397956051039695, 0.3160103789697443, -0.34336513325352674, -0.8211096998826486, -0.058773841866958325, 0.7435870687418015, 0.7700027611455886, 0.35356460806969586, -0.28351370231442236, -0.6270329592655838, -0.18729778186771504, 0.09587226661435219, -0.8465233486039513, -0.4634322712086913, 0.7531815152415693, 0.12845664291306108, -0.26301656164450343, -0.7424930352808486, -0.4719104914383908], [0.0, -0.7327443453846189, 0.4295839151430115, -0.46415034202516725, -0.5227194891079093, 0.9166818436242158, 0.9308241708489747, 0.44144199296460473, -0.05656913959129867, 0.8875103961274236, -0.8147514432692714, 0.21358388003372986, -0.8743449528509554, -0.49902117071305074, -0.2617371116626988, -0.10826667695027975, 0.10160126056925371, -0.3221761774786471, 0.24808219910118698, -0.7722936652760483, 0.906876891694005, 0.2143133410600845, -0.7199589513412225, -0.8909575641025572, -0.5400594640340819, 0.2566341905034125, 0.7162740904686272, 0.6012006253306026, -0.4207634139604461, -0.5287951435151317, 0.723662144845139, 0.15028297198825882, 0.7776887981774118, 0.5522644836744625, -0.8016285497732669, -0.9158136499883209, 0.02140206762858956, -0.9230455408697613, -0.2350203792440724, -0.45868229446800135, 0.7995495760031921, -0.39457128336862374, -0.43620983260390545, 0.5288291525682326, 0.008470128801925806, 0.8197068314448206, -0.004080459751121727, 0.10679799073035623, -0.25943559161595386, 0.9494420202900129, 0.6981526258259019, 0.28720419041500767, 0.0637572370125787, -0.400149761341264, 0.6479151152452436, -0.5442310456411477, 0.5733518933456375, -0.46905106618881365, -0.6802175980875197, 0.8053698291720447, 0.7580197318814003, -0.5057472201204964, 0.7556963490228391, 0.15319913476972685, 0.6220421313329205], [0.0, 0.2598389248362429, -0.8618946591292646, 0.022120869873005204, -0.3975975348228844, -0.018567460813231455, 0.0428479664034193, -0.5431839687247927, -0.20413200369943377, -0.8630173520348278, -0.2133998829069167, -0.030222131675698635, -0.006578173008995119, -0.04952920715782738, 0.7384250456088779, 0.9876328691979664, -0.25495674511379707, 0.8130218226897279, 0.9717609177184227, -0.268386626609177, 0.04920579857872364, 0.7260669594081117, -0.9201461095761363, 0.20207325819118488, 0.5133799036873283, 0.857392767526177, 0.7731701218767831, 0.9098350368983933, -0.5344948266563453, 0.27387462054499084, 0.7098931010402962, -0.08503091900806178, 0.3569111660753191, 0.09799542133683231, -0.7820693406326797, -0.6896153739436631, 0.9892217061311437, -0.835105492922302, 0.30232107371323, -0.49753060191465015, -0.6533154004243721, 0.09292810466803231, -0.1888115360337256, 0.9724263023516754, -0.25196149876252294, -0.03106397193354115, -0.09009660088885499, -0.9728124336900402, -0.30352755404529214, -0.7595529148924054, -0.35711060550670404, -0.6417535664766852, 0.7883567748904242, 0.7814569860947935, 0.5219256593523102, 0.33464703169672627, -0.5378353842785241, 0.09699559142582197, 0.8957253946180739, 0.7519679700037372, 0.23989778458328534, 0.2179388568681242, 0.19974822345963997, 0.19143421303115388, -0.6338423193528117], [0.0, -0.8522819052084755, -0.6380184180788923, -0.9135743934299606, 0.9271760974134279, -0.2643987826400425, 0.1791102576044628, -0.5114962351761453, 0.07067280419556898, -0.5972183708610311, -0.6043925142819778, 0.11405418287954194, -0.4945386938630206, -0.6759958741325497, -0.29382664904947464, 0.6872678297784314, -0.5636937881020353, -0.818385642455037, 0.8437237002169038, -0.10788882016175216, 0.8331882815335021, -0.10966379982379659, -0.4125721073597372, -0.457716193646689, -0.35287658101058056, 0.961300890694644, 0.9569997723788034, 0.1006499724583367, -0.04755859848125498, -0.60214464538332, -0.35092439126843816, -0.02119805283280149, -0.9605782382852298, -0.4783482643999388, -0.604709696144163, 0.2252901761781914, -0.6523615675295782, -0.7308856600351035, 0.8389307149262085, 0.2638215850043171, 0.08624968230651583, 0.7792309931890552, -0.23938319010626952, 0.19206192608823436, 0.04010481990696046, 0.1500445993437873, 0.09235852167150048, 0.4090207413131348, -0.3200020096261576, -0.8710084546622426, 0.6231746035309281, -0.77211081385486, 0.3857222377102424, -0.6910711289700571, -0.8744046430176526, 0.526550400538006, 0.7790877117812298, 0.7585023747552883, -0.010346770914658729, -0.35209115061214746, 0.18995720379525907, 0.7414338987103687, 0.3255706268554725, -0.10639753388116545, -0.30678963318144264], [0.0, 0.06907325691522985, -0.09736066949434229, -0.7342232108978978, -0.44453819984493287, -0.5611974675450133, -0.04054338044683578, 0.08920332172058291, -0.19937611212356218, 0.586696226067078, -0.9684084742222377, -0.7039744773926858, 0.24119836706304235, -0.2608076313934575, 0.8620503737541846, -0.35857305101850945, -0.2593909113103388, 0.7689949040987705, 0.9509396428893224, 0.042182918938611924, -0.03954188135751256, 0.9739011566014506, -0.33149388422118004, -0.42756177886277863, 0.9818689504673607, 0.5064136147994305, -0.6314874758577311, 0.19770222936254592, -0.888087758837029, 0.9851302031719726, -0.19997974303263769, 0.23083143913314397, -0.09006682354138801, 0.11205868183736684, 0.11326164704118467, 0.5355486015358428, -0.7674160536116691, -0.6435576491577834, 0.6861401233648695, -0.8380494836029018, -0.628537756402323, -0.11742226411091113, 0.54177372720057, 0.12172505569365792, 0.039372766941612236, -0.6184900040485699, 0.9240167540919972, -0.23872926914708614, -0.697573480116963, 0.08541321713887656, 0.49996617651426023, -0.26085659209137924, -0.19925047570337878, 0.42735868232642243, 0.8658540418304752, -0.6092358656306335, 0.07001577338911817, -0.03852879337733803, 0.1664250847886678, 0.973234232247258, -0.5435936452956326, 0.6044778173153831, -0.1556032182694413, -0.32328497876412526, 0.6815481524771354], [0.0, 0.8093772414186622, 0.98016228373147, -0.26343503433329973, -0.7904245865512678, -0.07826221155027724, 0.8860929023823915, -0.2744497097734501, 0.8624667356910183, 0.2651787339069586, 0.47683746851759196, 0.4729493621016577, 0.7012049106342573, 0.19647753323440972, 0.2637229829708635, -0.39207622538131304, -0.46031180922989223, 0.13896896614831455, 0.8897899132846707, -0.28808120758731415, 0.35984959624860946, 0.8442884463053326, 0.9952467325821854, -0.93174491456957, -0.48482329071589136, 0.8878941687401591, 0.27789610435983825, 0.6100689652227683, 0.44440370987643874, -0.46905826299999887, 0.7717936529007503, -0.6336686034818841, -0.48183946878692485, -0.13369724719909726, 0.6191277449904393, -0.6724016551790994, -0.4362976968064722, -0.3242518880947049, -0.6421785730720979, -0.2345674399741868, 0.8828648557775349, 0.011326105111710576, -0.317154111402891, 0.9253822350279455, 0.538463524981975, 0.507907252603634, 0.35683767443516623, 0.4866856653111908, 0.5051194645098136, 0.3259339790872569, 0.6642897224975487, 0.027809473423922586, -0.3797566566413753, 0.2392367714926121, -0.5792656845555171, -0.9376008797723729, -0.37545419512145534, 0.005795486536286277, -0.7678105647138548, -0.38863887313269013, -0.6363329097514012, -0.04588271938622026, -0.06945325417015293, 0.35811025003637437, 0.08350534281878316], [0.0, 0.4286925612319366, 0.11541437989382625, 0.21471259002005116, -0.7809048053054367, 0.8527191430598167, -0.06205828580899782, 0.31427240226604375, -0.11594264444617135, -0.9356594686866863, 0.32564829048280436, -0.3665302764470782, -0.8705898508145867, -0.6621521552189505, 0.46274522159970366, 0.14318649244298598, 0.23310540770262958, -0.4248325859301285, 0.3870575018924182, 0.5178241114541582, 0.6310056053396536, -0.709311920567664, -0.4692642644546607, 0.9700607234203869, -0.7031646635096402, 0.35004988156964967, 0.5312731275760484, -0.663631926010099, -0.6662612022321707, 0.48313111278089177, -0.19275305035311635, 0.8960449969684905, 0.016611250518509143, -0.48157535588620254, -0.15658095372173444, 0.4376917648755022, -0.5962687649556045, 0.0760664010335594, -0.8297854393279286, 0.7888447424034145, 0.25124182352972313, -0.8653562177249358, -0.8463840079727865, 0.9982632913833619, 0.3392493036269098, 0.9622523429874645, -0.46808741639242496, 0.2713666101724689, 0.5325763912709396, -0.2609019949778336, -0.1678684033240897, -0.6231482099541424, -0.18325699962331202, 0.31906284746252467, -0.8776903270533751, 0.021050000146185625, 0.9454493043117075, -0.15712084815381464, 0.30542916148183746, 0.29011802384305607, -0.44466147384159666, 0.1175213163297602, 0.010547773217393057, 0.8122743247983331, -0.23962809233829105], [0.0, 0.27842936914515237, -0.3382203417171164, 0.9431468934530137, -0.9107970129912157, 0.05156033386539207, 0.6161229082850161, 0.16582842773385115, -0.5332853375742592, -0.13569085660062108, -0.5329799596392748, -0.627443031251042, -0.9191221885275107, -0.6286651137527317, -0.7895271386542528, 0.4641122666365717, 0.8699636467582621, -0.8243579011391098, -0.9766690586572534, -0.03836841768054163, 0.2553996205529391, 0.18207925381311035, -0.29714632312212846, 0.6846260993289377, -0.6940135452646845, 0.37749874626676433, 0.7344788166576407, 0.10461750954015153, 0.688992750079954, -0.9612256588448173, -0.5680524340152636, -0.36226845595949714, -0.511940859190533, 0.08111239233825068, 0.6042396223660258, -0.7649824634421744, 0.9653754357412307, -0.16153159462842706, 0.997278994363586, 0.6354761637345937, 0.6400388329654382, -0.861474484039218, -0.2705133048780835, -0.8590667162712221, -0.5773505561377859, 0.804026333550276, 0.8243660393731524, 0.994475881349561, 0.21780328207330363, -0.46020474766003777, -0.6899497163528839, 0.8955521562680445, -0.7061990474944303, 0.20496871026529553, 0.4457930199249189, 0.4123189365093537, -0.20509236899288041, 0.3223003313821729, 0.8046573358891106, -0.16171642451100177, -0.2558860863126607, 0.0009949141952212295, -0.9856037220259285, 0.3918777959726169, -0.5190961861219546], [0.0, -0.7896393907843635, -0.4170562856201836, -0.5990706532802826, -0.48881123676135885, -0.07166741273807904, -0.197719119152542, -0.581593657476856, 0.5410825915302528, -0.2500294976224703, 0.5466691212664003, 0.8771591186856321, 0.47123763398940016, -0.6879633829439382, -0.502210746216495, -0.12473618909234054, 0.48115808934353843, 0.6741502627853087, 0.10256365284868742, 0.5020381905504232, 0.29192225076744704, -0.10921889476469901, -0.9925262787733343, -0.6580029300770356, 0.8666395899800754, -0.34833722335096307, 0.4763237307814191, -0.18753920100138563, -0.43825631095076845, 0.44287272784547055, -0.6991528652374231, -0.980711215558439, 0.5974897415785199, -0.053761050612591274, -0.8783607481182629, 0.24625175941456576, -0.037844390775716295, 0.30376440324583054, 0.9886345839752326, 0.2607234649357285, -0.9813709790485321, -0.8877270064864202, 0.017818709189760973, 0.2162493642617674, -0.42104894020315836, -0.6755309400678351, 0.4395426047291392, 0.10008933822505486, 0.29981993607012275, -0.2096876823802709, -0.6882823492109776, 0.2140046808635585, -0.5239270242697988, -0.7971727411995788, -0.24647921353634242, 0.7286945441732539, -0.7842651442424527, 0.7913135485516021, -0.4207849577589056, -0.7965802098482565, 0.041545257194766774, 0.03503239415354546, -0.0530488574692344, 0.8343486270043814, -0.657631425599355], [0.0, -0.535025782050411, -0.8467623618043357, -0.48068926239312215, -0.8459587532239299, -0.8715158056528078, 0.6309850926241485, -0.1569897165823823, 0.8101832806873718, 0.5324398967384975, 0.07746682651907374, -0.4108652331444826, -0.19631912113060973, 0.8115742654978785, -0.7539506543462294, 0.7764184069410958, 0.7381627329813738, -0.7664923107073606, -0.6833808755951969, -0.013907636215236108, 0.9592234092978548, -0.7108098603067351, 0.5264191454571238, 0.8882753710110546, 0.6705238487190652, 0.7127128356893911, 0.9610559363076434, -0.24033132893795192, 0.4587463872672923, -0.4266572473812211, 0.35936393622107077, 0.8827807137893436, -0.9029759672171997, -0.26174056852075334, 0.434627025844855, -0.9281703897587434, -0.8658338300288508, 0.4159186358217257, 0.17192994270885895, 0.6333508115784411, 0.6960865126218516, -0.02595055772684486, 0.0004900760242344722, -0.2029186859962503, 0.7427950334745682, -0.29716531743208097, 0.41128904591600673, -0.3609906041971135, -0.9130353463824802, -0.8610245009573609, -0.378810285993122, 0.8669633257665803, -0.4593579412487915, -0.3163834287345547, 0.5446819367258989, 0.3635354130595668, 0.9368948853824074, 0.16180926597074854, 0.3035425860972836, 0.7324104348720755, -0.1465042839657152, 0.0405916134353074, -0.6974958614078314, -0.9186645042416992, -0.17703519920077534], [0.0, -0.6066211904897196, -0.9741179030040457, 0.23779449427091395, -0.46391172885102117, 0.3733649286516987, -0.6009404969443779, -0.79496462468083, 0.6868539134039382, -0.19225043345673085, 0.3853166171640092, -0.10869148442885375, -0.5386377770310445, 0.44857053829417726, -0.8285148871316238, -0.2938387645136019, 0.09528369637506695, -0.5322959197009713, -0.17052531375677674, 0.8797386800150777, 0.833107094119253, -0.24971926663967783, 0.42291996475736193, -0.6722710331537893, -0.6761162319837278, -0.3730160901473689, 0.334141356268348, 0.8114642807243625, -0.2524366924445736, -0.292570165162964, -0.13045021590872025, 0.5721347029532188, 0.15771882616822275, 0.9907001984946522, 0.5594404253555394, 0.642203646635833, -0.5591459597416636, 0.7888515035055452, -0.456489978578347, 0.5869466512037567, -0.48212377785043303, 0.7068463784724771, 0.7359473884691629, -0.8881310945867203, 0.7264309544888227, -0.712814363631712, -0.5812811395155071, 0.4626801548145696, 0.9921207217135389, 0.0778600790955932, -0.6218069480075774, -0.042588904801942294, -0.47454794388186206, 0.37274784649311293, 0.894984826740385, -0.5784421832649962, -0.26266971518052995, -0.5909064234538147, -0.6089102154117738, -0.33700723659740034, -0.6896443776307903, -0.3832730670238271, 0.6744764552415607, 0.2691414486392696, 0.2990352459749532], [0.0, 0.6448141834931771, -0.03496566354269582, 0.10772968028729617, 0.0714563884598648, 0.1206359518077636, 0.08151925242227297, -0.8115074895852565, -0.7398482075499058, 0.33601298737039625, 0.6351771987075918, -0.8664990759984672, -0.6375381871969494, -0.6258120378646291, -0.5366937785399801, 0.09966821272368169, -0.8196275306001778, -0.9877479063683542, 0.9505070506326183, 0.09697475277583831, 0.627762808141013, -0.49803866712844713, -0.5026696681374805, 0.594344635081385, -0.8190814201670495, 0.8596637308414447, 0.5701265429211584, -0.4272339254690112, 0.5426853123697776, -0.7778462215331405, -0.5582656126422876, -0.5865918692191641, 0.409295425321068, -0.6239501701272776, 0.15941980117855187, -0.5073632545774506, -0.020044110565475348, -0.020323398561832715, -0.6584207926402047, 0.6564611641671819, 0.5630546406630019, 0.07879258955321143, -0.8495463661510736, -0.39251733325351534, -0.4803949381351625, 0.7809022503762992, -0.6104617095721009, 0.46588708450682315, -0.619733254194788, 0.49158543543777616, 0.9731016625772005, -0.26326111499230115, 0.8067412304543929, -0.5023775094610332, -0.0026604121312821085, -0.5367860860312762, 0.6101120997067865, 0.004712178984397016, 0.962416131851993, -0.3058114822947273, -0.6553834291673591, -0.4024749279258923, 0.6378872062565853, 0.6541030413957609, -0.5097142345278802], [0.0, -0.2099331126921277, -0.46659997053953056, 0.9008784376510839, -0.3308544951571889, -0.09191770546633626, 0.5275498189878237, 0.24747358247651668, -0.5197449729206747, 0.8563340181423751, 0.7630374941447875, 0.8245004752412792, -0.04036613282605303, -0.8762757499055545, 0.9097502263781155, -0.05546899742660618, 0.7270573646334699, -0.2274927302125858, 0.971205746127603, -0.6887243419396162, 0.3409840490589958, -0.5136897289243517, -0.594229753236919, -0.5598139548908692, 0.635614988800577, 0.2765243332223453, 0.7228698662924928, -0.6555761965261155, 0.6779403512862144, -0.7235636843361055, 0.7073132580620538, 0.39926847298783363, -0.8224971956042477, 0.5877353385664336, -0.9254757954807095, -0.7401339285220301, -0.7508183293918712, -0.06210112365822291, 0.018652028099576775, 0.9379762123382817, -0.287964149892497, 0.001525401797925991, 0.48535828928167946, 0.815828291625037, -0.4449745556522014, 0.6882125063561577, -0.7918794109106956, -0.4652930015504148, -0.44251877168262865, 0.8798185191301818, 0.5835782879991933, -0.7379368617710887, 0.8568075179218795, -0.194820125627215, 0.6839906689605216, 0.16518339652713804, 0.6113498605865751, 0.417497935464693, 0.3665481079646926, 0.9460066161322764, 0.2440402051934041, -0.858832526421318, -0.4965780102064456, 0.4778961301327254, 0.22268606573177646], [0.0, 0.6303198291743483, 0.192044803090502, 0.250348325777352, -0.6056032286475551, -0.6038419271948003, 0.6749857217906186, -0.3336457796888998, -0.5742315913173682, -0.9287862055962152, -0.5628238563071124, 0.9320033773306153, 0.3790886374570709, -0.3468744878175473, 0.22916061076875768, 0.020456591758951315, 0.6473534464710968, -0.352482878907022, 0.19151502938465703, 0.898042404557986, 0.9227945190404161, 0.17540587223002474, -0.244044325929583, 0.5101104216082393, -0.8070628341205832, -0.600096277525832, 0.4590410380128281, -0.6320540559883278, 0.623388523688091, 0.41688585454321514, -0.7013594796982715, 0.6858096500704577, 0.06650747428875689, 0.6179564712669701, -0.21200958737488007, -0.7568255543215717, 0.3400319628803935, -0.5746823297908735, -0.04115049766451122, -0.20188939598352412, -0.853807924524182, -0.7020176872960888, 0.9225231751507589, 0.32871502168207634, 0.25889140609999023, -0.32404905304036835, -0.759753384325333, 0.8560284776154236, 0.5434623010099766, -0.15577137906387173, 0.49919269381296016, -0.5357384619800044, -0.16013471096014797, -0.04499068273661042, 0.9520152769844841, -0.0813246768020964, -0.009116566894698558, 0.9203629205345446, -0.537067157977478, 0.13199346237976123, 0.5522772271001601, -0.2011990398964944, 0.8242247382503403, -0.34884231275527716, -0.9331077893181694], [0.0, -0.6575631095817518, -0.5746578907037441, 0.5972670633154065, -0.19074282166815923, -0.5459566236998106, 0.7586595426373796, -0.483175294232487, 0.3211415387783723, -0.7410129243989099, -0.7386673510273056, -0.44829401548425574, -0.7355446036963573, 0.7206119751462103, 0.4043676342712337, -0.7203633950303621, 1.0048766773419262, 0.7749879697996672, -0.3800567520216647, -0.8166991971765112, -0.7345841008245948, 0.6270206304775195, 0.12308287802384713, 0.5676041440692144, -0.690148706585204, -0.84003315167807, 0.9157361979374643, 0.26741415800879365, -0.4576674905927714, -0.9405425520470366, 0.04180054057153963, -0.35201472531740635, 0.1805227983545801, 0.5960783095871977, -0.4325967099523493, 0.22769791342774698, -0.6960868262160697, -0.5548017551748935, -0.14097578242020353, -0.7978363468814814, 0.3383547452209023, 0.7211529992669526, -0.5889280714171452, -0.028408726640509707, 0.48105173536732976, -0.49071141235740984, -0.04781212359374568, -0.5383427422540222, -0.9127781232803889, 0.9017579687218399, -0.3161082186292474, -0.39227872287757404, -0.8776935561820742, -0.7678049297246768, 0.5311370397615139, 0.5563951748101537, 0.597474480099085, -0.8805980952977628, 0.6088651074973793, -0.880525360912361, 0.7361191397357826, 0.3234191711862079, 0.5215501159751962, -0.8383616655455131, -0.3501158335396057], [0.0, -0.7224751517266303, -0.317855053858209, 0.829395126543396, -0.7205259203998056, 0.05269343757267905, 0.41243945778269075, -0.17367593546041185, 0.6969849846727828, -0.21661327813870118, 0.36945044902534563, -0.4986895373268814, -0.4515811727533927, 0.7297705084406029, 0.5622901649665245, -0.5721995087710754, -0.492658374269715, -0.8719878352878283, 0.1891392210042036, -0.12892957319559925, 0.23333355737270337, -0.23795251774539292, 0.5172855951187354, -0.09743227033058996, 0.8725354623556434, 0.16901410064753014, -0.2063077756330207, 0.7774716170301655, 0.19127278808789902, 0.6569999077490057, 0.5028096428758437, -0.8860296404642826, 0.3517598388381388, -0.07683469889796113, 0.14971263638830457, -0.5078787546729784, 0.41073751591618834, -0.4306012178638359, 0.33750119828336944, -0.6398922092154166, 0.04081166162392195, -0.3143198500593456, -0.9242966027451128, 0.3035021082539649, -0.947227907497269, 0.7338084296854913, 0.5770645198470581, -0.5972815330419899, 0.05671204401554472, 0.22943698440630736, -0.8301727778063022, 0.2507584341156292, -0.08809180021362285, -0.6871346351990275, -0.5887163483796408, -0.08734246647347009, -0.8575524284173063, -0.6402563491355172, -0.7842328744935625, -0.1463663828767813, -0.7646448402399165, 0.14345046638579131, -0.997795687678198, 0.27545696238934886, 0.5284184491363941], [0.0, 0.8376334492865017, 0.13576804878752333, -0.40907177398461336, 0.9167886799484045, 0.18127257931386834, 0.3833711762080393, 0.1523995930173291, 0.07937645164432383, 0.645416976733541, -0.9123557795674377, -0.43500743119720275, 0.8806420230062465, 0.23558734241285958, 0.7984517833522393, 0.9542801161146038, 0.5092848603996784, -0.8370820047927451, 0.6217634080766177, 0.32516181541696504, 0.08960105737138233, 0.18145968315470726, 0.049111022181606005, -0.5639546851311056, 0.6381511171903683, 0.699134687827713, -0.006722765482653438, 0.6517076857914823, -0.7959670022583671, -0.6385640090708838, 0.13720679109522418, -0.9051638365386234, -0.7135103031670783, 0.55892196670396, 0.45946298924240087, -0.37489100614099685, 0.9465177730918033, 0.7470323056365711, 0.13302710131427647, -0.20414190467500803, 0.5648062492135599, 0.7474629085332036, -0.8098984864693338, -0.8725629444115688, -0.8998945327690394, 0.3406107519469291, -0.855603840502337, 0.40041438260823553, -0.15254479169098714, 0.045584037807359375, 0.17205949584096425, 0.5586920319759, 0.3953151784050337, 0.3080982034890924, 0.914662142813769, 0.48870546030788975, 0.6450522474129655, -0.8798233945951407, 0.1402631231790878, -0.6085271427598568, -0.42420065628981346, 0.2732513060553715, -0.5428512539373227, 0.12681842047875055, 0.4893572335931814], [0.0, -0.13019837051359445, 0.6437612299300196, 0.5341131180101565, -0.311117789621233, 0.6547945293992351, -0.6127998688587343, 0.04070535174444212, 0.09344528124026927, -0.7145908579102137, 0.7057148750602898, 0.9790440079676249, 0.4008694875141957, -0.6798587194967876, -0.17079020098038686, 0.00018629805274617006, -0.9008122947816364, -0.4474246016787775, 0.6631911432874379, -0.8485589644151839, -0.1722324188647057, -0.39369042589273334, -0.3202665429268493, 0.3896107319478086, 0.3320720698650084, -0.4860809554142983, -0.14555930283973967, 0.8255390897425716, -0.047207077563997654, -0.5076225661291011, 0.4662004056078244, -0.047678816999519986, -0.6954238688003148, 0.08856781017513943, 0.27222379892864323, -0.059753582995394745, 0.8850554072688843, 0.762779149147492, 0.00849180848949559, 0.8754166023276653, -0.510424839703396, -0.17989285367463967, 0.7236760351017675, -0.9238428016092131, 0.8877049118463175, -0.5754144389325946, -0.03741598478336099, -0.5862529812513424, 0.3018697185890349, 0.17612597234499963, 0.3140180423974068, 0.6074240249703433, 0.19327600800775668, -0.8308773648467043, 0.03436378070817639, 0.4450705988977929, 0.2915261595484537, 0.9212449372119688, 0.0597072303921621, -0.9734117778777542, 0.40754254874079354, -0.38599741860138903, 0.9896209348088945, -0.1615692602236721, 0.10495845418504894], [0.0, -0.33151233012670545, -0.9731013977265419, -0.8736623739676186, 0.9382816758036657, 0.4154431984703232, 0.770486305420866, -0.6368359225949748, 0.3845049104378559, -0.035959307664225476, 0.6169613710328821, 0.0915546116565262, -0.4326740947498327, 0.09752231484362701, -0.7283271375563675, 0.3727640693856681, -0.47232038320785474, -0.4662165747387523, -0.9312669718045877, -0.15941903939473093, 0.12657620902245986, 0.28227502477899014, -0.18814104277076718, 0.826844590415702, -0.9023262381666393, -0.40094524186362157, 0.17963469898586226, 0.378109972080242, 0.8820416632878996, -0.35017541350856046, 0.4951221328174131, 0.7757061642708692, -0.6014147725350215, 0.39348113798620854, 0.11277688320259005, 0.9131944670140496, -0.41613100750529036, 0.6391196292383857, 0.5260221002734516, 0.23524637500692358, 0.41100525562356016, -0.31487971315447394, -0.7446110896060439, -0.4904330339773028, 0.8693597696913578, 0.4318459424002153, -0.8145939750694707, -0.11074161338461376, 0.6960689370780248, 0.7554368739875199, 0.3377454895251947, 0.9132312520923632, 0.5062353220797555, 0.10934822113959192, 0.7084046387872827, -0.47338552393157973, -0.8946111044685161, 0.7528597475387169, 0.1362033576979904, -0.7172478576785981, -0.2837267718754954, 0.02985000522935356, -0.7200742431464859, -0.7709529832601677, -0.532008207145939], [0.0, 0.3972857444423921, -0.1599298841625995, -0.4211339528207622, -0.4408122650018473, 0.20597495965916585, 0.8136352472462496, 0.2690743422505686, 0.939297561716683, -0.21474307109982896, 0.6063202477930265, 0.27454184170873547, 0.9921152939589458, -0.8083656776656485, 0.6157040630227525, 0.13395998422255243, -0.33617758608353226, -0.6962361638225987, -0.15611045061263928, -0.39892747928790034, -0.9502105079891273, 0.9532867955402239, -0.8034760948598523, -0.2545819460184229, 0.6202683164027442, 0.609717796628442, 0.7135678373558051, 0.4750249562452815, -0.5925682464308947, 0.4474378124278744, 0.8157530905456281, 0.21941504578008622, 0.6102002672395355, 0.38080941864853945, 0.9657818358987983, -0.20030352187310188, 0.10379804146029861, 0.3841053188252857, -0.8366902444246873, 0.43122273640905473, 0.03129988951371891, 0.5055668674983212, 0.1087650525645969, -0.8392364669353275, 0.09727357193281279, -0.13104299306730452, 0.09443051329348066, -0.6004294836710862, -0.9546880657056814, 0.2074026850163987, -0.4698030122045759, -0.9605348052159567, -0.28306010401180454, 0.8942878093117089, 0.4885676790381787, -0.2959839580254388, -0.3125616971733217, 0.42485562770410196, 0.29205502990407983, -0.16709969457033408, 0.013276733130937829, -0.8405555179078077, -0.17358808121258032, -0.5899722223826445, -0.6414826230068067], [0.0, -0.9517251472662872, -0.08942793919142392, 0.06131012768758136, -0.36141569066715534, -0.1963407642333078, -0.04844634729768283, 0.5222606130862301, -0.014910450954736792, -0.01887832638901866, -0.6414092921057163, 0.08617974127736983, -0.8578503036591462, -0.8013483229876169, 0.005328088556203319, 0.40775364117340956, -0.015222661632454384, 0.1315990146020507, -0.4998481926047077, 0.1486717481864176, -0.4166323196845684, -0.9654256119161919, -0.6318030659867153, -0.4781859442829155, -0.23414000262056542, -0.7852022633562933, 0.331974982589606, 0.36831770776991607, -0.2469473102220767, 0.3805217970771728, -0.4310319383415331, -0.03157653497030294, -0.07307818792021169, 0.9337225456945973, -0.5488830609643495, -0.5796213527901755, -0.9070784470546659, -0.5785387315394278, 0.16412426295671204, -0.5512014729554625, 0.15744246326901634, 0.9303538054425796, 0.8334214780663811, 0.3349699322129159, 0.6602048364242047, 0.7365457865488486, 0.7204616762446047, 0.7283530720097343, -0.9878335931339279, -0.0052540050696264174, -0.8751148642114699, -0.7334164950485782, 0.24927484992100368, -0.4063690102647723, -0.9416753388566088, 0.4227517111418591, 0.4433772323105146, 0.3876764757599461, -0.4985317995998735, 0.17333508334286368, 0.9287441143353143, -0.3831908414826147, -0.6900761555356738, 0.31621394031374356, 0.8207352687294823], [0.0, -0.2556694916886111, 0.27594855124977197, -0.1144132662711198, -0.8438479327161301, -0.9742086399630709, 0.7676680193369612, 0.44007484013444575, -0.5603347456407859, 0.2414154553386713, 0.5588604047964868, 0.840748891232748, 0.9199734136176089, 0.6105925431356607, 0.41817891101901405, 0.7777518099052145, 0.14244749692266334, 0.8498643019208284, 0.5517080958017861, 0.0350836330388052, -0.9089703873716244, -0.5441401059329847, 0.8179395506700036, -0.7085037073042143, 0.36011515010435685, -0.7546226296003243, -0.11263654612713776, 0.8633700814205878, -0.8598454376630287, -0.8506547569768148, -0.5358879008829038, 0.10239127483633183, -0.09866504899263841, 0.8471796686832644, -0.7221632147950595, 0.15232966689957403, 0.7069007569065675, -0.6240694238858299, -0.3517885050225131, 0.598991001392908, 0.7006831926982126, 0.8810953172559097, 0.35616891528740885, -0.29801441095071823, -0.9136737559208902, 0.7774912747111353, 0.3726908612629574, -0.7173841747981717, -0.38040052908220956, 0.58984471506452, 0.023595097352828526, 0.2501426086483195, -0.7337788249564731, -0.026420332238188356, 0.9464590492729434, 0.6586573514723608, 0.13614258181580396, -0.8681974442626289, -0.48574001457351446, 0.9848093975645393, -0.40688059541782945, 0.5228343124732518, -0.8370015103305943, -0.23204101320261303, 0.21836705277334226], [0.0, 0.763143369227337, -0.3788277460213454, 0.7268910579458313, -0.8593866284618211, 0.870465286241777, 0.4160786412095988, -0.41247661309392575, -0.365713480651019, -0.20331737637102767, -0.0815757241570007, -0.8626481901060127, 0.45085349989867285, -0.5790830882091381, 0.023646612407321386, 0.6132624143582486, -0.15893883776588622, -0.9679985305173155, -0.37717199951503805, 0.8930690452505493, 0.40755138694488485, -0.8136651498871864, -0.386936953310832, -0.5237294590347062, 0.14047594859583637, 0.5102189921333175, -0.5434576338586936, -0.6210420576700094, 0.20264888611734724, -0.03657516362369603, 0.16363964279719134, -0.6999845072021835, -0.9740061882509096, -0.842456696808226, -0.1848344131638506, -0.14512502270347785, 0.88912355469609, -0.42139828784775246, -0.9975797302748669, 0.45963457071601005, -0.8104657714430048, -0.712952446833988, 0.8688288827523974, 0.37887824753548865, -0.6065793695650277, -0.8111607050789503, 0.9430717115452832, 0.576218939754872, -0.976741778700781, -0.25442918654835756, -0.033440159822151413, -0.7091339151959253, -0.0425770509360653, 0.6039204961588187, -0.7739771748198394, -0.10003728046797526, 0.7022984877932407, -0.8742104983510084, -0.725126489822092, 0.6865543702566513, 0.28890174403528834, 0.733928990465981, -0.46248837826680994, 0.788263555800986, 0.3818457553038436], [0.0, -0.2903390322557339, 0.3894947198960411, 0.8754900504945197, -0.8098700392631308, 0.2791262991193064, 0.9583859849112006, -0.5381640692442804, -0.7694090636371301, -0.45692234986927593, 0.7205120982423069, -0.37663820994753716, -0.4175573717012465, -0.6547024452451027, 0.05493152960538637, -0.8453905293355874, 0.32943933877695886, 0.8639699630237858, -0.3429780086795566, 0.10307271605415418, -0.7458679211500724, 0.8689053364835269, -0.22261291128499128, 0.030756710517100796, -0.2346492635769919, 0.6240343537726365, -0.03483007844127022, 0.1958732430397667, -0.20696797158755467, -0.842990437592098, -0.45734600902647377, -0.4044898499928887, 0.18182129075434728, -0.5229806740223448, -0.01521135263926288, -0.8116308585306768, 0.16619132755260974, 0.9128327862598968, 0.6145457709542127, -0.9374900709709904, 0.016903122290637576, 0.8441280110062181, -0.3997488222661733, -0.31895213575481324, 0.06763703404860273, 0.593607168360092, -0.40081641975237514, -0.18780400861064314, 0.9878976581987957, -0.28886581106086306, -0.09982008102334046, -0.542959293928228, 0.08139989439712589, -0.979384929254999, 0.6180774339777975, 0.3671760544187777, 0.6659020633836105, 0.9960804898691302, -0.30097360055052513, -0.06711785529990193, 0.2641716698492339, -0.023259810100025285, -0.2304091284204248, 0.6067489340441359, -0.9920598238575066], [0.0, -0.33237812445524856, -0.43625223752533177, 0.42569285343799707, -0.9371017622782123, 0.9499870637518274, -0.22102974634707995, 0.5033172373308582, 0.8287831292344519, 0.0936487578618233, 0.3301477210291943, 0.12423554300014487, -0.9848135455973056, -0.11939246916858164, 0.9084681430458639, -0.5274694920495359, 0.5304629466824716, -0.805321833306947, 0.7263469150428444, -0.8860098617535983, -0.16277166336711638, -0.6663881624020944, -0.9456011268532567, -0.8100146207692753, -0.8515921598263908, 0.9523287331349787, 0.9785436745419172, 0.08363703108477079, 0.19141678100460333, -0.4924129458503953, -0.16857024173669835, -0.5314507150548632, -0.5971564907755481, 0.05301977776697278, -0.7284857634223025, -0.5019314157019334, 0.36208288738609995, -0.45206546444708634, -0.6454897373589629, -0.49838952427894684, -0.14476572582986671, -0.8869107179064727, 0.27253734148378717, -0.7722398859619796, 0.6667380406822522, -0.336421347698878, 0.7547716628663845, -0.195904129137121, -0.8445088341690549, -0.8131887156261438, 0.39611827568384567, -0.5061656214657836, 0.4812288488162415, -0.22787860165023358, 0.07263882878017061, 0.3748468429361753, 0.9320996181135687, 0.28264056445711866, -0.3987669963104514, -0.2042267368509058, 0.250349373389638, -0.8111415808265501, 0.8953594112516792, 0.16435053278020656, -0.8153233239271221], [0.0, -0.817551134683674, -0.8319442580629908, -0.5814671564334855, -0.7921703928885764, -0.7957757894391676, 0.49232948369689694, 0.25072967948801644, 0.4627030622702471, 0.7062459441483091, 0.6542006169957251, 0.9771760142489744, 0.09495373965251062, -0.46916701170591946, 0.0009067007149538346, 0.7932095582890757, 0.9957026264904092, 0.5809139534292282, 0.9877424231492105, -0.5621890895392961, -0.7327578710785325, -0.9236965410246099, 0.9338295643724609, 0.481227448309383, 0.23062113732024092, 0.00125774720515516, 0.49125491996242526, 0.6720245983575915, -0.729116671848257, -0.8204361323736424, 0.6118303849289591, 0.33291502240422394, 0.36026346101264417, -0.6916399663534277, -0.0627597914592864, 0.28016569761813587, -0.2509437073254023, -0.71709763048766, -0.1118360811115705, -0.8438323353234642, 0.2157364959194592, 0.5648407147703798, 0.00809380966693014, -0.26696518787021345, -0.014061700966356047, -0.025255138528827253, -0.501031615530069, 0.6697975173917234, -0.4518453370875945, -0.22139561024483978, -0.28676102521403424, 0.5227502999690349, -0.9001863852917948, -0.33039218072094384, 0.657229945889861, 0.04400077475827517, -0.15158937171366849, 0.35952911064024645, 0.3561256497455088, -0.3787097522321865, 0.11774001508702524, 0.7974508918300305, -0.8098555320587616, -0.3739123870033623, -0.7457060144604745], [0.0, 0.28516484863248137, -0.5418039690555024, 0.7219451262253467, 0.6428487916159813, 0.02409593574907215, 0.07113337669813001, -0.36849235339649666, 0.5522102700820333, 0.9933909368862213, 0.27584785153364244, -0.6330953765002496, 0.2121104573457386, -0.7046698903369816, 0.5016921418111845, -0.6477625907127597, -0.9747985396291003, -0.8089446384494704, 0.08408941841684393, 0.9747502814503853, 0.9344139069626012, 0.6240307983097937, -0.10469515905177922, -0.4463176981257408, 0.30060616977135246, -0.3396175755210815, -0.6228187049360403, -0.014227612172168544, -0.8831813790440021, 0.6964181316584075, -0.3818061950712436, 0.7664204133910965, -0.23280702457673774, 0.48972151504801903, 0.95985341441707, 0.9251884097111517, 0.849862119891127, -0.7557372386787707, 0.765469651826828, 0.5885911363838018, -0.5968312036624557, 0.23991234839618278, 0.23330108884075818, -0.8031455228942895, -0.8624416481224729, 0.6706766901152681, 0.40538644804926743, -0.842319316884582, 0.2716559689980531, 0.8590560136712708, 0.6514837869255062, 0.3936736727019386, -0.9663067683357587, 0.6775049046640814, 0.7565356065704995, -0.04204088307045002, -0.37746913881076866, -0.09312076514495511, 0.992279172995119, 0.7171254450697666, -0.03360455959529126, 0.6036553933429538, 0.1649537902305156, -0.8697549276136002, -0.7935160835096795], [0.0, -0.08127717679452648, -0.3510190155683641, 0.5106256338612355, -0.2028345507936059, -0.01088392919554239, 0.7682835643915479, 0.5922930467550466, -0.43442322783744675, 0.1520831949759372, 0.5886932012262535, -0.6640467394604926, -0.6928202403770429, -0.46869561778461066, 0.3251103132896678, 0.7147448821673308, -0.4807496286394986, 0.8609725786533607, -0.708885725754404, -0.9938782356630679, 0.7528760877658137, 0.8705952510957867, -0.6227880099673027, 0.6756639343722104, 0.5792987397085347, -0.9414804925351374, -0.09797075565894504, 0.47934663508968384, -0.22883798641437814, -0.2612533934785888, 0.4283011253593522, 0.699447259544036, -0.48551956210216235, 0.19770097960255076, 0.9379341218582485, -0.14418398547979133, 0.93652504554344, -0.8051838678134011, -0.2623436341944609, 0.10672923285832463, -0.6019599424117863, -0.02588557811065942, 0.0020344783122410405, 0.7432949989589855, 0.017178604498319226, 0.22913140108454114, 0.1986135397632427, 0.942575409316986, 0.006848344900620752, 0.19039290616535368, 0.7598243313274643, 0.6944557331884654, -0.5485985031715038, -0.3668149962574975, 0.20107360301517485, -0.5120201549012634, -0.4340185208940007, 0.4414152651063453, -0.11495662754634026, 0.4790614125257944, 0.2370391098586623, 0.6185387321178383, -0.3166267123550589, -0.5200191675827804, -0.9752181303106512], [0.0, -0.25543560099408774, 0.393066901500322, 0.5298291747210705, -0.6299467120988457, 0.63942623237166, 0.9159495016482428, -0.5135318663477496, -0.5824434394951962, 0.6642591634899017, 0.5547849873935444, -0.9349864105393565, 0.8903821778521581, 0.31069350364900694, 0.7134892295453658, -0.5826024804662675, 0.5913558622086658, -0.7038201222016945, 0.9167343012346655, -0.5408515002457871, -0.8068525727807223, 0.7666334770861841, 0.4960275750440641, 0.8267849588999467, 0.6256146611995417, -0.5463924178472694, -0.9924966389885589, 0.5290049168477191, 0.6534053570602262, 0.08613182893722189, -0.4339321766077421, -0.6113140954743755, -0.39006042355422876, -0.38090253979678024, 0.11606989082488918, 0.4998796867991858, -0.9186798186749988, -0.004278285734959738, 0.4664840685289517, -0.6044474072581753, 0.10184024549393267, -0.5565142672531807, 0.8451574254663666, -0.1900507693962818, 0.15779349880434562, -0.5395795745305307, 0.607727331090438, 0.11521893027751774, 0.3474514801843278, 0.34310528465472134, 0.9716483662630792, 0.1185290824664106, 0.23563622509676097, 0.3554206082249484, 0.10956358445081818, 0.8397429215327887, 0.8338043861546578, 0.16756266586470742, 0.5862133911457543, -0.4219060287097726, 0.581908252522131, -0.38261548269078244, -0.2989041991992311, 0.057722195165252815, -0.3200157579187472], [0.0, 0.7055158245424031, -0.46192637589447405, 0.7978929849759336, 0.9088860849512638, 0.6583305184063665, 0.33382890170638213, -0.41521070810528643, 0.4520821742036395, 0.8750740246757142, 0.06448077442875688, -0.9956858645013417, -0.7106533841607654, 0.8341578256365705, -0.1582576179139811, -0.5087682977746101, 0.8108812664879186, -0.4664859346189448, 0.22998339685896824, -0.44684814591862476, 0.3501347983736704, 0.6781400138444686, -0.10311376287453795, -0.23838923815045088, 0.6108023668970685, -0.13895811118126167, -0.8106155397820805, 0.49269547033411176, 0.2787285914095919, 0.16614031649032954, -0.6469919890006169, -0.3540287648656095, 0.001203079950812814, -0.7588805070499784, -0.510117751865193, -0.6632916435035394, 0.6822629568662723, 0.8519779096261894, -0.6340605164104841, 0.6454280517220009, -0.7053161782669346, 0.39516725555128596, -0.6223412379631442, -0.8471653204371141, 0.31169376545272676, 0.12515708149477936, 0.8036182758441174, -0.8987568101876598, -0.3266694753437325, -0.9930043866953682, -0.05580009650959906, 0.22064232435988052, -0.837344271635382, -0.6101213313003274, 0.570866694065599, 0.3292749197674658, -0.7257261512517206, -0.7327218866384891, 0.03864638226387494, -0.5830045647068296, 0.9106878188357035, 0.45421107111066095, 0.08524400280989494, -0.6526728671418421, 0.8294946800994139], [0.0, -0.3837685840407712, -0.7935985619566658, -0.2508998385687135, 0.4481873110876902, 0.4073026946041391, 0.2582579529913347, -0.3268821766193766, -0.08112073019920363, 0.07783796829115405, -0.976168339502587, 0.6620965029395903, 0.15991616187665045, 0.951815925789512, 0.5523599937935789, 0.4703042258255738, 0.7256680015012493, -0.4566610548081674, 0.25407270033437085, -0.7944763018256003, 0.22689246764986665, 0.7559039997939884, 0.10368211645905138, -0.9270460749381303, 0.839509473895327, 0.6276405546855994, -0.0019505017203867536, 0.267112255560648, -0.6599768789442545, 0.4210369311806758, -0.3558215152132769, 0.3645708330736074, -0.39854491375900614, -0.9970456439877781, -0.30313060648019136, 0.8410280646773804, 0.33011647107825676, 0.42084828314215433, 0.007676191240585389, -0.7626122572313068, 0.7692364556940134, -0.9212674170035248, -0.614440885319346, 0.16575843293311243, -0.8512097415619009, 0.5745844216030183, 0.7140214196500421, 0.6973728096450391, 0.7603019766927757, 0.150132988065472, 0.5081161308232212, -0.9037634217553963, -0.6430876781217121, -0.8721808750628985, 0.1142686241633826, -0.5301315202096439, -0.5823736248344314, -0.17135623314010223, -0.1299372012323635, -0.14735603198137318, -0.3861939031415114, 0.4873467891233343, 0.7078026008678548, -0.3368202750285961, -0.06738839748508586], [0.0, -0.641695854575802, 0.47890673746288004, 0.2158231286035433, 0.21981517394414912, 0.7072859779238477, -0.9301441549189352, 0.519311328758609, -0.4887901867961705, 0.750313856267899, -0.7567218893817877, 0.4146408563928193, -0.8198410241990632, 0.6766346139042012, -0.9820356593618387, -0.14155513313400153, -0.7555415588666496, -0.8517414703112236, 0.5034606700364711, -0.9771908187491608, 0.08045178110952649, -0.4713462240400076, -0.7897910434413098, 0.1348306717517621, -0.8103926700134484, 0.20241176523210247, -0.8748336837802965, -0.6932271144005697, -0.7946238851016563, 0.38451246446698745, 0.33203323827630893, -0.6014092217941058, 0.9450835656667707, 0.5456932132865471, -0.21894089184706222, -0.7351302828332059, -0.5959213234402845, -0.2133053851837462, -0.4835865125787723, 0.9144548259824068, 0.929061814181568, 0.5651883908944983, 0.9553627277553691, 0.8046369801194682, 0.9817697563375979, 0.9579019956866769, -0.6945303248118324, 0.5930464298676168, 0.571128322681099, -0.4381460547620256, -0.19050231760755143, -0.48838484830297973, -0.035023435734137055, -0.47468151285843496, -0.05619313294123235, 0.9486313044792763, -0.8784001927853785, -0.40232113876351555, -0.9482108433853247, 0.3885109927229939, 0.935279489660745, 0.516457925713491, -0.09010856261356469, -0.9475820108348728, -0.5775330928759004], [0.0, -0.6972938891528507, -0.8132328975560189, 0.21214976858683826, 0.3530666642891718, -0.9797900685102859, -0.39527907595149303, -0.7410250102197917, -0.3162035375324083, 0.2064930565223391, -0.9699577674457415, 0.0212402059861555, 0.4891931577206056, -0.36518158538113416, 0.601555565153384, 0.7882948267947021, 0.19619313773486857, 0.01459255102329686, -0.03245962889505127, -0.22146875997222795, -0.33119709925783675, -0.8632724907682142, -0.012731954797629001, -0.40564904305509736, 0.029325030889252715, -0.7332412826603079, 0.03809156247486904, 0.0444620390619828, -0.9579908362724481, -0.6183591085161193, -0.41800920614116194, -0.3044754824769773, -0.7763039722926214, -0.03355855121068335, 0.9714535328719026, -0.45599921103657703, 0.3799509238363903, -0.13344077849076053, -0.0385794499298929, -0.1690466819277612, 0.1615521484824251, -0.10000662815493107, 0.25567928873300877, -0.22396303924854052, 0.927364853110104, -0.194672694670982, 0.4850688137658949, 0.18513983157474978, 0.33861945220807044, -0.995316633258725, 0.14286223516899885, -0.7468691716773944, 0.7568577235109221, -0.9243603900116768, -0.8902435740198185, 0.468686150247171, 0.20429491782493764, -0.6440759171823038, 0.5046533381125757, -0.09192628303137271, 0.7148379291353919, -0.46509165306367456, 0.6509641933772435, -0.9518442277859165, -0.9227980253329485], [0.0, -0.18704648308176183, 0.5150670057340874, 0.08065904658091551, -0.2882818423579416, -0.608291609901989, 0.18467306771455222, -0.1097211881844306, -0.9665137320209526, 0.772760105999017, -0.9042498872696538, 0.13478884830046478, 0.9235244589829859, 0.46093332198372894, 0.241530153760071, 0.5008766821377273, -0.9860155619796501, 0.12314160186987283, 0.7738124233864232, 0.08788552352514964, -0.2627028849212532, 0.45477187735782315, -0.7510363842746878, -0.4282949170994339, -0.39932704692380566, 0.29089707415312077, 0.12849936199676049, -0.6156156078334915, -0.2817797112316008, 0.12174590210357857, -0.06399483723929429, -0.049929776833989026, 0.867929732756899, -0.6807006162546348, 0.41346297709972346, 0.22637801251742184, -0.7336341862947054, -0.567520410152731, -0.5696543389921868, 0.33540716156236455, -0.4999801623055908, 0.05759835000817817, -0.7649594720336076, -0.4441461156312566, -0.09503885797218653, 0.8704127741812582, 0.5873392997336776, 0.18564768762825654, -0.23561171611697027, -0.7665831048404217, 0.30898770214692783, -0.44381372172027794, 0.5732954106195386, -0.0035145116765782896, 0.7932259491481366, -1.0025130352140204, 0.00597113974654564, 0.6691882222287646, -0.17508193190338983, -0.3052561352045736, 0.9841043360241003, -0.1395564439344709, 0.3258067052395163, 0.7617804498914268, 0.5260391582782579], [0.0, 0.054937565531577096, 0.9373745273996582, 0.8893231709672871, -0.6870202944925159, 0.13798436177669995, 0.3478700366251427, -0.03660788073115952, 0.3857514033537763, -0.0912679018976863, 0.5329222487572112, -0.07098047670425603, 0.8169638418666894, 0.9593107778790365, 0.5001842040922724, -0.26428125461458346, 0.0415065289593588, 0.6122903775405307, -0.44939289198077187, 0.116682506345867, 0.7489676842720486, 0.9068274970763243, -0.23486936582822046, 0.8461841988578406, 0.751066092718902, -0.8917496448705715, -0.5031050778819869, -0.6451856144533779, -0.47103198399820057, 0.12079633936371038, 0.5815503729296189, -0.49032902385222443, -0.7808849857759623, 0.19031990831987866, 0.4640777715434868, -0.6607615893822024, -0.7935373815250296, -0.5294436967661428, -0.03478349098635536, 0.43528191851299963, -0.4392522487925984, -0.10582164721456735, 0.1939015449710712, 0.847583893817291, -0.8193962233099508, 0.40737308880255263, 0.5830919327019312, -0.10544540514329678, -0.151364524610759, -0.9684261392401363, 0.23285304045516408, 0.46419829296871457, 0.26961154120377123, 0.9744508239447727, -0.9143788575152247, -0.8864679722812613, -0.008824636276074873, 0.9980821304890966, -0.1182905400309519, -0.5856023446118632, 0.408615985619999, -0.10415233935417356, -0.8507681691702201, -0.2513467779643423, 0.14782784660828788], [0.0, 0.5720894255153891, -0.1996562424843545, -0.7414034114290122, -0.2841199670067143, 0.5458755187954737, -0.4576994722990639, -0.8258814641033577, 0.6698684137246629, -0.5714037345704205, -0.9658310232222982, 0.9286026244655394, 0.580135026576286, -0.11603210317342709, 0.8824182825557382, 0.7854280365582146, -0.501407256957461, 0.8605343796579455, 0.158970110324483, -0.5220109026940422, -0.04589659672483529, -0.278660153537225, 0.24116252259367438, -0.6196022908120332, -0.5233016381329595, -0.34741404793285113, 0.7778773089080168, -0.2763064541755944, 0.3044665209039883, -0.42957450328043306, -0.11279617387936496, 0.7663077737647843, -0.7269343085936353, -0.9825896964881673, 0.7126017883192378, 0.3670005189128653, 0.5549623300745965, 0.9579372297589586, 0.93328039046648, -0.2770442993119933, 0.05263926238107986, 0.1529735327308773, -0.5557663545196662, -0.22016601875711223, 0.0556908936494524, 0.11132702098517104, -0.35999778766390217, 0.5145239722452601, -0.7569749504423412, 0.7537927836831363, 0.09940198384861212, 0.7730737072617011, -0.30939033706035274, -0.29022020258302594, 0.28358055550865113, 0.06491319250259131, 0.038630193206048775, 0.5136061740995592, -0.7626715190090534, -0.006492219354591407, -0.14480759783941732, -0.5869286981489789, -0.547289631175447, -0.9073947956738416, -0.7550513407679386], [0.0, -0.010629989850460929, 0.8355036437156207, 0.11893098869425789, 0.12407804605345747, 0.5000783536610728, -0.1381013045709023, 0.40005729949933067, 0.2941141810509841, -0.2272953739553537, 0.4474458841637217, 0.5898479168851932, -0.9657460068596604, -0.8389385152414, 0.9638833048888675, -0.08878348493594931, 0.13534630964776792, 0.12566000323909662, -0.8164965278208826, -0.5728909003367122, -0.45593095026031033, 0.43803629184826653, 0.870348274755228, -0.9880531882862928, -0.3038882944397145, -0.6591037129400865, -0.6234194847670484, -0.6725249452908455, 0.43145113179462735, -0.8406938951293002, -0.04659368054759862, -0.05553568946828328, -0.5746018976039604, 0.3223548489913917, 0.20730381564290928, -0.03533895952061185, 0.08049991750854008, -0.5653644083351322, 0.16603992078866978, 0.3886372426501825, 0.7149810378089486, 0.9756929265972057, 0.6760424021919739, -0.6293191386313806, -0.04689658574254402, -0.7803549188761872, 0.7599970968890932, 0.02885420550030935, -0.45713018010579354, -0.8137021742116701, 0.2656055142353513, -0.7735966691050412, -0.192307016644513, -0.5287555223951474, -0.6570074040416165, 0.3302116687773405, 0.04115054551180021, 0.8054412115613849, -0.34816362304822807, -0.8602589630685188, 0.4294415892267204, -0.5733349507976901, -0.7015167159688026, 0.9315690123292508, -0.3586065447445167], [0.0, 0.5847362565053964, 0.6831361492054175, -0.7532388237436313, 0.6792995147594781, 0.7599276755638106, -0.0576350326118524, 0.9377548838410777, -0.39074787695773844, -0.18223973285116743, 0.8063695156202424, -0.28815967899246764, 0.3115339406611935, 0.6914260536658148, -0.620790969019489, -0.1717611181707713, -0.1075061912840445, -0.8354340431739594, -0.2949955526496165, 0.9143280313896526, -0.5557494265032165, 0.8995246578470028, -0.9645250068522462, 0.9634974202149399, 0.7828390082731405, 0.17495930594310918, -0.36032212713443196, -0.7775510798451377, -0.4279094254671534, 0.9646121670206101, -0.35464330334031774, -0.5353376356747117, -0.9896022170814235, 0.16083579303827591, -0.012693787375224249, -0.8689370195089503, -0.9346806168819365, -0.22926273500098499, 0.9053888727209691, -0.5973859306189631, -0.3961933580926389, 0.03126582143645518, 0.14215414003413432, -0.8105841647450213, -0.35537104318283874, -0.9854449005174776, 0.6959979219132408, -0.664228835553159, 0.30147645318239974, -0.5157502206516981, 0.073117276834871, -0.2846427393287957, -0.9893436030843541, 0.25041086570097393, -0.11644571315052475, 0.7462591338962046, -0.749331621084735, -0.0945214491078851, 0.9866120744121716, -0.6280431646553075, 0.44005559084214513, -0.5664085816686955, -0.46379460922114774, 0.7556024222201968, 0.1300585907131799], [0.0, -0.334582942925221, -0.2945016758402981, 0.5882458830449335, -0.07054927865448306, -0.8503358875592852, -0.19686154176369397, 0.5436419227228528, 0.670121176271214, 0.5840986947333269, -0.2628321034151968, 0.6655829792032983, -0.7632260423340299, -0.445580282109548, 0.9102198097672026, -0.1617218404019107, -0.6223043543862495, -0.4267886393892568, -0.4114179723845537, -0.7051677942035195, 0.5075768367607378, -0.23025929721425267, 0.35436828394914316, -0.5802380658232277, -0.6646943295760697, 0.2380169790356961, -0.14346151509244112, -0.42916562252474344, 0.8569847291378818, -0.10868039241500183, 0.6719587415930096, -0.04322939706288774, 0.4857895109244276, -0.20605975578211005, -0.11939958273749265, 0.33219323397142375, 0.7593260894078755, 0.6104496495040566, 0.21768828866140924, 0.6847018184499644, -0.19710200632364702, 0.207539566097033, -0.8937440192166921, -0.5218818045193105, 0.9918668369450484, -0.02473462342052158, -0.3337401220674826, -0.7844633830358588, 0.003595164979237625, 0.5345305441654249, 0.37579618377667295, -0.5428703386917074, 0.7790669417132885, -0.2960699256716623, -0.45832568663872303, 0.667452283782672, 0.29161798700916713, 0.3368998717283944, 0.30452530675197115, -0.40125701964501276, 0.9058597372260145, -0.8026223645128705, 0.078537781848966, 0.5354512243266046, -0.4020102694545251], [0.0, 0.1212102352018123, 0.21286026566489819, -0.09666594532339319, 0.02031990478215897, -0.5898072690910382, -0.9550927940523846, 0.06319198047345183, 0.7933145885342447, -0.7226035112347252, 0.6354370230268759, 0.1210349503733054, 0.9667915764167169, 0.9199662925525021, -0.10054227197644303, 0.44515375526448153, 0.5321540425474207, 0.02028192967284675, 0.8767527271903592, -0.6861029079139933, -0.6232937797501591, -0.422187378935815, -0.31871959736931577, -0.16430367928222575, 0.6130518822000953, 0.030529664832498946, -0.5222407550048612, -0.2970480034958536, -0.7051367507457847, 0.9541604432202622, 0.5915777534673199, -0.5718029167422738, -0.1216454312001626, -0.12521121433268284, -0.46904692640830686, 0.9286135017254324, 0.24984638070691914, 0.8656597341596411, 0.060446342355940416, 0.1821746327348377, 0.8096454183342671, -0.5921521432568119, -0.45730660534045964, -0.14928036522689853, 0.7268623883983392, -0.05420992588966211, -0.19580809551192574, -0.8877244588754652, 0.052367421559347295, -0.7842746678814339, 0.667828132272145, -0.7296568890838968, 0.627255065961978, -0.5771933731800746, 0.5508483987842218, 0.5307362092680511, -0.7665455292878418, -0.6150586129045423, -0.7205953126629687, -0.8665052179895459, -0.9035865871515026, 0.2905943727819469, -0.6477742606056384, -0.10643153151430713, -0.3206244198108831], [0.0, 0.7956004296213754, 0.8509441758467851, 0.025994595148216077, -0.3404691885963246, 0.7875499622391675, -0.7542434178932039, -0.4692542047693508, -0.6249976300380495, 0.015437131931358915, 0.6242648401918256, -0.3160230869542028, -0.7765974606961488, 0.783420733434149, 0.3501128981975027, -0.8511966812940946, 0.3206490658610084, -0.20600871287802758, -0.9020041361000184, -0.4058724375924059, -0.9627595581080908, 0.9503409701091092, 0.012794684352202714, -0.6877101916051589, -0.4849872254619608, 0.6746372885089764, -0.1909991681351005, 0.9802775892871513, -0.04160950151087346, 0.8829079647162156, 0.10044387429445321, -0.24558742952885068, -0.4704706973294833, 0.8590872142498369, 0.021171659365503154, 0.09982679851568482, 0.5568919869405498, 0.3975042165480978, 0.8203629971704348, -0.8964158499982299, 0.9049670171757929, -0.10951439977358264, 0.02771339917818035, 0.9830012121540126, -0.9947008024025931, -0.12113911203654114, 0.025907728803030237, 0.6867540405058533, -0.4956119152362289, 0.15414914095295046, 0.3573260666707497, 0.26285218569228136, 0.021140876420655756, -0.4832974445153526, 0.2935523371862433, 0.33944736862227787, -0.23758082656549753, -0.19686097657762366, -0.9146585899637194, -0.3143645502407352, -0.1828588138486375, -0.030440062066689567, -0.7814844134285506, -0.8264372718097068, -0.49775639804917754], [0.0, -0.821096318313123, 0.3990605689213417, 0.22175035146015423, -0.4279609226530341, -0.508599515258202, -0.990512832658717, -0.931023129493064, -0.3653788130319039, 0.4480314113242337, -0.36688420704604163, -0.9644820113280282, 0.1683110242096858, -0.3310219779143168, 0.4523022642154183, 0.635557950343594, 0.4982408797381981, 0.0855093184755141, 0.5425919865775679, 0.29303863880662073, 0.7521424743131547, -0.14544300264362658, 0.7603300109132353, 0.9434277362804424, -0.8254037948516347, 0.7883451588171606, 0.9534874763473193, 0.43575362981387084, 0.8788996258407269, -0.6131863173523738, 0.10625187424101308, 0.9878476417911144, -0.748608649089074, -0.014852125329607453, 0.676882854243199, 0.39539539020496645, 0.7537251625864028, -0.47668916167341807, 0.6349413611698943, -0.849644445747854, -0.8644721273713546, -0.31972472807836405, -0.5658550037060592, -0.46407675152542577, -0.11756668912938678, -0.2804549437806768, 0.46265139965107127, -0.466750842817488, -0.3225820679820728, 0.39194040605321967, -0.2161052919880712, -0.10206974604150608, 0.1575438778530584, -0.3665419793634657, 0.06494850700644841, -0.3458990056273255, -0.8200638321407472, 0.10334214317238284, 0.7357966585516232, 0.06703052095705568, 0.743328357910643, -0.7705656126662881, 0.9918182126348319, 0.7557670783841265, -0.07992731357704012], [0.0, 0.41644971602914566, -0.15278303593344, -0.20154619734717416, -0.4649981468643639, -0.863112952181808, 0.8800595862805911, -0.8762118390157781, 0.3252922367044798, 0.9076782447582661, -0.33202944373060106, -0.3201220403853537, -0.12723582822260868, 0.26006444477979096, -0.7381958814781997, -0.6986171580037018, -0.4919620607873699, 0.7572009198540296, -0.15489775133308026, 0.7164908243925743, 0.22904871829493922, 0.658032448267619, -0.19511898530893623, -0.31126369370262214, 0.645845421956557, -0.2882558861501731, 0.41427234726443934, -0.9790607198712864, -0.3455500177951527, -0.601574770906775, 0.8537042727181547, -0.9387334922536429, 0.11033928226979957, 0.5658648595796865, -0.45880993527602026, -0.6225162890696352, -0.01830413394585374, -0.050771175471176516, -0.8883639069055751, 0.6671554339109541, 0.7199136240725786, -0.09239203397876009, -0.4100406558314659, -0.2868660583369404, 0.35302387265335544, -0.28577385733331173, 0.3050885744632925, -0.8637543629259009, 0.5644670543846688, 0.0974024847364673, 0.34673225575042343, 0.8720528820098509, -0.29676708699021753, -0.9506921531370978, -0.5927759721521738, 0.24034310556644917, -0.394005251252795, -0.5119363443984439, -0.11204852208378863, 0.9625665641174833, -0.9032803174237599, 0.28733852087231876, -0.17863665958338878, 0.037593777133576006, -0.8501631849122777], [0.0, -0.839640804354502, -0.2319612025149561, 0.25782679694607136, -0.9931781227458271, -0.2098200243674078, -0.4337700009065698, 0.7504033843774444, -0.021626538258168557, 0.005943537525735656, 0.6085645994582163, -0.1192185351603516, 0.2065824849160328, -0.13706530045893792, 0.06539578566605456, 0.44073413364132724, -0.8296263804979995, 0.5572300940202426, 0.34552108830898826, -0.6919956490422552, 0.2885931326804345, 0.9441149568567213, -0.43201620701404836, -0.681174772004617, -0.7654808069459181, 0.5137833638477894, 0.010854733000592545, -0.7871981142175939, 0.7872015689193881, 0.6061611530606753, 0.08681057118041696, -0.8468962876736976, 0.4350854917342116, 0.2676825744699065, -0.7314819537916676, -0.303926531782722, -0.8005645501164033, -0.02047323642228985, 0.14618367592202394, 0.6226792320242054, -0.690722558401757, 0.5142635347142744, 0.3058042104076987, 0.45622217684277977, 0.25354750223641037, 0.1027135996681698, 0.36159170003140545, 0.3653617041738633, -0.062153857470640964, -0.4156069743248048, 0.7602817995866257, -0.5372812857232903, -0.3033974795644338, 0.6191743899822229, -0.018839316110208094, 0.008134356666906185, 0.13006083855744738, -0.4832036568042346, 0.21925473214052166, -0.12502579992136156, -0.6893769755272366, 0.8049269849212837, -0.37436294199759973, 0.7834807926467963, -0.7707842475204254], [0.0, -0.47012373895599624, 0.5616539580268579, 0.12272419097291981, 0.747459387220853, -0.02901465454113444, -0.4777187593230166, -0.07565313314680007, 0.6657564204887196, 0.10780797020519423, -0.5229763828924243, -0.6335962086993545, 0.4269742859618887, 0.21217711411963086, -0.46557097963774186, -0.5364340503892602, -0.8595149951273153, 0.24728337819216786, -0.7351262030700262, -0.9143012354754817, -0.023401937545327964, 0.12990983037762555, -0.3574549128059942, -0.2762701883558294, 0.22798669471874422, -0.7109560874496929, -0.33596638445635824, -0.8447788182967588, 0.912374908728906, -0.6830118765487418, 0.4471450800651574, 0.6520939833654171, -0.23642819985183353, 0.602386586115152, -0.7689318396256309, 0.5625658963816851, 0.7347352006856837, -0.36867841602726686, 0.7786477436552558, 0.9092857403499894, 0.5986658160328625, -0.5657517493088636, 0.2964429127575283, 0.903889066581058, 0.6337367156130055, 0.5463090865235474, 0.9777268430245583, -0.8031964331175976, 0.8953830841801488, -0.22119642639728201, -0.45328196580737307, -0.5496649095698908, 0.365769761639659, 0.2196141656559325, -0.5731290770631369, -0.8794665699945419, 0.4018981339111034, -0.1262777418130645, -0.09664642624514964, -0.19216477959585068, -0.7684961186215447, 0.23117180240051777, 0.8545799060378761, -0.5055666001915381, 0.5072718994036934], [0.0, 0.6915865291593035, 0.32061436160829904, -0.025041293038291033, -0.3341000903745948, 0.9943042282154975, -0.9275538284891763, 0.07038508366393399, 0.4590599951893919, -0.6751995693743099, -0.55789933991932, 0.55497584188821, 0.7897690940328506, -0.565467543212155, 0.5037765493500633, -0.8428598836401282, 0.1058938248043047, -0.6541159088481429, 0.6061969959101023, -0.8499305993443835, 0.8945237507860108, 0.22084643483135757, -0.21247361333994252, -0.810948903747433, 0.7139719392962288, -0.7696093341068015, 0.16552041400075743, 0.8740235048542917, -0.8343876181882551, 0.31210885643226194, 0.7686746974069477, -0.49104507367627026, -0.5457958517855065, 0.8166290652856247, 0.7442731161588623, -0.8363735616999481, 0.5698437121647381, -0.39709673583907545, -0.17190648064759806, 0.23067997736172383, 0.0059097711627234505, -0.1299629587719259, 0.25857154756590645, 0.7826110030749346, -0.39224943914037363, 0.7793843918436419, -0.11477591308631575, 0.7639685391060969, -0.3031184445657429, -0.09596618496243384, 0.40749388535028486, -0.9066600396275337, -0.2457693261514456, -0.5459264335206419, -0.27889333593856475, 0.9814968571574194, -0.8527924275334631, -0.9750722944487051, 0.3768013256068727, -0.056572343077876765, -0.7091118142851945, 0.43470852343797883, -0.6265975052485548, -0.5749995501780067, -0.47391833706104625], [0.0, 0.4839369900025624, 0.39215203999003045, 0.8956836954211631, -0.7166169658819557, -0.24899934916160504, 0.1382639470058478, -0.5140746440284487, -0.24590251316260692, 0.5992201454789329, -0.23057199189951938, -0.6680051430847563, 0.7722245269903593, 0.7327643685141002, 0.1720712959967853, 0.5779677783029434, 0.4506872617470327, 0.8750958712732831, 0.8487331852520408, 0.9626444044601535, 0.08958129343025453, -0.4670319676183177, -0.047851380381514576, 0.9191031586274364, 0.4982468020384097, 0.8457198597410489, 0.7142289591109182, -0.7024107024234939, -0.625969000483941, -0.17563383643820393, 0.7735200108067319, 0.6456367310720432, 0.26526406841041306, 0.2119280171853758, 0.20934939589540508, -0.5257535690165913, -0.23378457968025057, -0.882592717932982, 0.5405327696476812, -0.538358258785151, -0.010656748983310937, -0.05600943058840995, -0.9813563050616966, 0.17870789298815098, -0.0568003269249438, 0.9471969935235877, -0.2458626367266306, 0.8379563485578522, -0.6729331423910883, -0.8134438946177808, 0.8153742676560233, 0.589351499290867, -0.4159337021308145, 0.9994448707715659, 0.42841205980661073, -0.2463548588646423, 0.5046483222638725, 0.8508732528876418, -0.40310849496733664, -0.6297257410914958, -0.4454427426428828, 0.5175182858118283, -0.027435322216502224, -0.25663875744383846, 0.08953301398549794], [0.0, 0.5671573048384885, -0.33432138730105343, -0.448835913768761, -0.6041626987453539, 0.4877807382925113, -0.35869323755025945, -0.49943176835811554, 0.29767190279109523, -0.2986831788785429, 0.9699847673139538, 0.1501789234721921, -0.9286919284289992, -0.2162464198775045, 0.6320332527810096, 0.8928052175251948, -0.7006659561239194, -0.7502181945236147, -0.4653683961348594, 0.7953657395691739, 0.37956971864761285, 0.18400296200276092, -0.578162051150586, 0.7254804886899474, -0.713892804400727, 0.5292183045628734, 0.534633911164639, 0.2572502922402226, 0.8705039917465353, 0.19976072684396243, 0.45432702537396685, -0.5992015286569273, -0.13348105820594733, 0.31194173373539535, 0.024126503593975467, -0.16276602894699452, -0.8062563224186153, -0.36203746521278385, 0.9383927791776463, 0.09365024391565495, -0.1217703623950788, -0.4194115352041653, 0.28466142933231436, -0.2198089070365155, 0.7333033502168045, 0.9561632516442912, -0.8094621227066677, 0.938411402805041, -0.4287304035915781, 0.9877367860956613, -0.5470689734492452, -0.9216482357250041, 0.8335150051395541, -0.5218652164033788, -0.5710375123318043, -0.7828716950785507, -0.895152158743566, 0.828182893172161, 0.5562524547520012, -0.56140086373667, 0.6033117062559985, 0.0712860794196406, -0.6879026511752029, 0.5723465649386087, 0.5346458607202522], [0.0, 0.9060457166426957, -0.06144651239078987, 0.7755095752152557, -0.7826125441856858, 0.8933979469738172, -0.10532361420785287, -0.8283440869223181, 0.24580451478120877, 0.6179265525977318, -0.734902254179196, -0.4296813688604099, 0.4880275896897758, -0.9491926644949347, 0.3281476236737834, 0.24399450581425602, 0.8622316035331916, 0.3114947425016198, -0.2830002058365272, -0.663246272188835, 0.8294269307392379, 0.5307936716874381, 0.05983077637200937, 0.5409112798240863, 0.4014976548604236, 0.48826544173495373, 0.24684928132909528, 0.16155463495562958, 0.4013447929685845, -0.49285113186832735, -0.8280177852081141, -0.27341251620906154, -0.05538842011831778, -0.2785276568454307, -0.9542252604445154, 0.8108115904665039, -0.29909300478118067, -0.33514418320210354, -0.837318156847448, 0.8944889058508582, 0.5621830673624508, -0.054549788595160555, 0.06888250964412003, -0.889534789999641, 0.496515444855448, -0.43404335085292695, 0.5485741577786483, -0.3546448235725802, -0.9429685792472683, -0.013229861625799389, -0.04597603344091867, 0.4356652706984469, -0.8911011857191536, -0.8189985023036629, -0.8376615384731387, -0.7250451182042538, 0.9425438335653048, -0.6903530390063475, -0.3870056293326228, 0.8858441253614185, 0.9217872868558503, 0.8069722352516935, -0.4821585452605039, -0.14330270992994923, -0.38999511808920473], [0.0, -0.9420718279795511, -0.8498788893736653, 0.18191223095980968, 0.04146445253462256, 0.09983404263597265, -0.6633545817062563, 0.4917365138932906, -0.92410364600936, -0.6389015194617674, 0.8286725796624389, -0.06213542190195188, -0.5195534775541941, -0.12578376294409166, -0.5542665922163881, -0.645762614075322, -0.05086331423237696, 0.7376640298658811, -0.8141452298593584, -0.39036043768351, -0.21849942423898322, -0.9366998766959592, 0.3816629100527962, -0.020273181103533294, -0.3459452504194518, 0.22347633979851053, -0.6092387476432929, -0.8865669358053706, 0.3130066295380194, 0.7827475322806814, -0.4141052233812682, 0.9751895421271901, -0.9069406469833904, -0.07090465389676934, 0.06753095072472273, 0.24977510517555268, 0.14962377385073378, 0.6168120151594899, -0.5729792331133081, 0.8211077417632627, -0.6899317025103511, 0.7086762106231067, 0.5549593351225119, -0.17317566695774736, 0.5333642974271675, -0.5942179984067173, -0.34589424629593285, 0.7931196652192584, 0.006693555894623889, 0.11089034351594498, -0.47901992222934764, 0.26884564047260534, -0.9775673205602905, 0.9488804959476702, 0.2146144748990739, -0.8604374499055033, -0.06660880587595219, -0.31725197253247395, -0.04208497820395671, 0.5134477169573644, 0.7153352882913633, -0.6086771658844871, 0.7887563900909843, -0.09681577826419566, -0.4691767390666599], [0.0, -0.6184584794600613, -0.9252678946446004, 0.5457169090246046, 0.49785391382374666, 0.6357179133738489, 0.0017874726019026232, -0.052020179941163626, 0.9384087789040207, 0.5868591831676307, -0.3069224783289081, -0.6087054201795654, 0.61812069197954, 0.6052313609528996, 0.5641715171888847, 0.8576806226286904, 0.5009325157903384, -0.08522442294674941, 0.5294593090180261, -0.06185925633347098, -0.20284396428005988, 0.14453543901626054, 0.2352671223494219, 0.4554054305397079, -0.5884042248976393, 0.7316600998504548, 0.3261583091354081, -0.3903130482391139, 0.5270125219672864, -0.4514175251261956, -0.619648754250088, 0.12148682881336866, -0.15181845295347543, 0.9078719344806988, 0.31185870071112937, 0.8215584400145823, 0.21206090919239234, -0.9081266684052817, 0.6404092226425353, -0.1979378207616049, -0.7828881556003526, 0.9785848018685215, -0.539454045764741, -0.925445212170459, -0.024328805190403233, -0.4578676721119955, -0.48840866653983206, -0.5341805134739409, 0.5377257785974883, -0.8351918245284327, -0.5356226862996599, 0.09345251919470862, 0.37367017426883253, 0.5963416736801467, -0.5204201677403878, 0.35194218373343816, 0.5723782135367665, -0.21899860977765792, -0.9390970546225569, 0.645684222891689, 0.7176740181428883, -0.9451918378345727, 0.4705299844462301, -0.7077819694303465, 0.8660374429922569], [0.0, -0.9689996424206591, 0.7157987995828847, -0.08515374178909015, 0.9213433174918408, -0.5643274514928317, -0.7238038250019881, 0.5535902033093953, 0.5183322417132272, 0.8848399757309574, -0.7978248315161618, 0.15604536401247734, -0.008144017308241236, -0.5094232385871593, 0.9645259591798826, 0.6263776232361398, -0.20727081291965033, -0.9727477659322252, -0.9456728224319131, -0.8411384263839612, 0.8082103792754729, -0.9217395112520509, -0.9308898144525313, 0.40622509183680733, -0.31856573859330617, -0.9562757779349272, -0.15873070578585377, -0.7040207182050515, 0.284162185632249, -0.5098992353639021, 0.1961402580747493, 0.34773373658447443, -0.0754219133906974, 0.8989581169254781, -0.5765758696628692, 0.6431837394033408, 0.011959201077255014, -0.2599768919113332, 0.7192989007346264, 0.8221852933911769, 0.6710481884939737, 0.3582869466965011, 0.7162822711121255, 0.14051131462613792, -0.35791576137236636, 0.8261924098357559, 0.4035838313310144, -0.34351645678195264, -0.4818312568505805, -0.10881588534075173, -0.6333675027242257, -0.7697138364199635, -0.0453137200832508, 0.13910008132161197, 0.12487885783264206, -0.6805701885323767, 0.7629907764478443, -0.9735333379583601, 0.4294427279940959, 0.3941435429530948, -0.2120907364544366, -0.8158579309784123, -0.5559931785964423, -0.6259759329373491, 0.11992692747806187], [0.0, -0.10407475288095432, 0.5936917463773753, -0.046720366227441176, 0.7235871504210016, 0.08843345004253343, 0.9830642697350841, -0.1467339346979945, -0.01330314805181009, -0.828146558082855, -0.2802390663424504, -0.8685997986861892, 0.4705485994096563, -0.21542259124506405, -0.19407932517223148, 0.7076754624857221, 0.8839233361160013, -0.4054936851131236, 0.483070274583027, -0.07591315528649947, 0.21903674889428998, 0.6203843923674639, 0.5222454945798326, 0.07191013974234947, -0.6932341208511318, -0.930098087833988, -0.7557483691784654, 0.21748179057835906, 0.7559807185578442, 0.7258424739498149, 0.7056347582448778, -0.8036829581814687, -0.8914521492769101, -0.6241700430007644, -0.3612530076987719, -0.9721406325708529, -0.7791491543823007, -0.14930614052190255, 0.09538721839809385, -0.03462324082514776, 0.9391733945855871, 0.31609720152067494, 0.5191830082479847, -0.6225374013835331, 0.09110272409226444, -0.6882220150720505, -0.1859084948040733, 0.5704101120611066, 0.5708351452909854, -0.9823245194843087, -0.44075709018835996, -0.6481453043574916, -0.21249857174028275, -0.06760717415713062, -0.6366792142430167, -0.06697790017889954, 0.24392850955621764, -0.71388967082788, 0.7447415151695786, -0.056522187491761786, -0.9115255040298165, -0.05378036872799167, 0.9023104353552743, 0.18224679669065783, -0.8636757262932291], [0.0, -0.8061721108925393, 0.006076808414305189, 0.3494123838900085, 0.36169349000702905, 0.5680008222713223, -0.916253199208922, -0.4540922156209155, 0.26313199429654177, -0.48982410534921644, -0.626228629419874, -0.8051339556499176, -0.8896397450274663, 0.4565024689809113, -0.4122687277811461, -0.6281748425317851, 0.40259605482120664, -0.6696014117512205, -0.7354514009221645, 0.751965722545127, 0.09673762013698806, -0.933728790702698, -0.35522110916780647, -0.8830778114970567, -0.6020527223239949, 0.3791740422363429, 0.20930931050217177, 0.802784379957235, 0.4380235958671283, -0.3112646121429902, 0.21922337379863122, 0.19531449161321446, -0.4908678846895943, 0.5067230808492346, 0.5129853086286952, 0.847236416860145, 0.1175831719815448, 0.5217784121891182, 0.7507650271447314, 0.13306737565846613, -0.9052514378131327, 0.7856563928819911, 0.8739246080962509, -0.8626476825994117, -0.909616288391064, 0.5720303168973022, 0.8077275685082814, 0.4797196568494715, 0.9417893189253662, -0.807960259238707, -0.17871574215403938, 0.40338969758757826, -0.3918896485251471, -0.20926712475839884, -0.7670739203092861, 0.5310085656354756, -0.7191203219670342, 0.9176119223258552, -0.8408009934562033, -0.5581522004013979, 0.801435182543079, -0.0461547463391616, -0.495315610730287, -0.5259656558285339, 0.6712625120390843], [0.0, 0.09555154069353156, -0.7230814114104087, 0.8815169804674864, -0.6128730235973737, 0.7152877613954158, -0.7632737698926145, 0.7469687071377497, -0.6282497990832981, -0.4051867811193687, 0.21702284463697846, 0.1646199790309742, 0.7522558618496241, -0.7883543759386522, 0.2639160346040781, 0.1588900409037596, -0.02519005304912481, -0.020593966467360482, -0.4244760215579765, -0.8946949417286102, 0.5150165024510225, 0.4594683267897102, 0.18503930041070696, -0.7790387287119935, -0.4811446518734238, 0.8187437735343376, -0.5141448373360313, -0.8113725722697338, 0.9382892066559574, -0.45898471581506883, 0.2644613582981868, -0.12889776976771622, -0.6546580312407486, -0.050025329860541326, -0.15228097747510255, -0.011211714117267504, 0.948118253445131, 0.2294419520447327, 0.6914405521296225, 0.701590385740646, -0.24499952571096087, -0.1532224566888943, -0.9317205288331317, -0.7207791176014616, 0.4871800755723869, 0.8333678103143506, -0.4089314871587915, 0.6731832550630478, 0.9006222501759819, -0.4298248184848593, 0.3100053144353883, -0.9236379959534636, 0.40565135115955603, -0.7013083401476158, -0.22655380250303256, -0.053782030629355826, -0.7583177655433725, 0.7610063556816321, 0.22289379328051556, 0.9259466267556088, -0.19440228299229054, 0.16403288196512045, -0.9040308114567331, 0.6865191797702146, -0.06411804828511238], [0.0, 0.869219574272031, -0.49313390188548767, -0.361036273777191, -0.4471406160391353, -0.02964418438280327, -0.46042274024975627, 0.9613325287915551, -0.8653546151750687, -0.40591491429160914, 0.5776554406613722, 0.831189770081919, 0.8947242458003039, 0.2948434033427809, -0.8947975659014527, 0.5204195243447968, 0.5766149664392304, 0.9477988835934749, 0.06503632191756573, -0.9630929632193461, 0.573894571272821, 0.7909331281344002, -0.7799130671322705, -0.5211584518163043, -0.03588359447822234, 0.9813168374921323, 0.736323065518973, -0.002415302863048514, -0.6913538804901485, -0.172785161232148, -0.5131501599808165, 0.13499144744899166, 0.8163159429591719, 0.09139692857545124, 0.38141152400618716, -0.6065007182642544, 0.517284530544489, -0.17897173708358344, 0.11803335836626663, -0.4662936552949657, -0.5014925896896338, -0.23030841515751066, 1.00065317041969, 0.46287897003760764, 0.8340889671407149, -0.8916259832752399, -0.737973262932533, -0.5059225720971047, -0.5492977267106844, -0.27215819268392194, 0.5323307907514218, -0.45890296868490643, 0.36795696061488203, 0.36220022912892486, 0.5466902310626496, -0.7823271500027262, 0.22534730625173327, -0.058269187236498, -0.15330249811128702, -0.5839375144020419, 0.42861931647057727, -0.3930211547289166, 0.21425107624303294, -0.5973374341564824, 0.9442544628848759], [0.0, -0.5396535385781316, 0.6518299363438242, 0.8005926018611521, 0.4026835919297395, -0.8081673849318624, -0.2815183245032887, 0.6493869081278768, -0.2552502298243874, -0.31781366378657117, -0.7597931390765611, -0.6614296715613923, 0.019336904296424286, 0.337458065316116, -0.6540870833275767, -0.22812863536655398, 0.6860545164039957, -0.7809158732405852, 0.38964640615711765, -0.2748941114707695, 0.629427153048086, -0.6755982329409265, 0.48950981057685006, -0.4697716069558195, -0.5161454601256499, 0.5444842920469292, 0.6616038004308544, 0.3330580532635649, 0.6123820344119496, -0.4575566037278582, 0.14524705833431298, -0.7214014851671855, -0.6898181400421386, -0.9747026643604552, 0.6740444847678805, 0.6793406238928599, 0.8894291671496867, -0.9942327619439911, 0.18074800517397524, 0.46401022981975726, -0.04522703939706136, 0.4712934017806204, -0.11766389749835965, -0.32241244011904363, -0.051162334392741815, -0.23682914363586727, -0.7268669007723011, -0.9001594092833642, 0.618320723445367, 0.5697238726592123, -0.5747165005131991, -0.44410644919109576, 0.40125154439381644, -0.6504922618083125, -0.2908529094888784, 0.10496294470675364, -0.6418389499521931, -0.4945478904612777, 0.5993749736335536, -0.9871418975404491, 0.8213431416579097, -0.5885711760285957, -0.1278474271366475, -0.19418370730769124, 0.4343177454990123], [0.0, 0.25982200242318326, 0.15426623052250546, 0.5317830261072087, 0.45997417971426774, -0.7302557384566094, 0.9238980800711305, 0.4545480294005589, 0.02441282227786934, -0.9157829803451231, 0.08931678000746097, 0.47171194594650623, -0.6470746473657147, -0.32496371508553, -0.899250499135148, -0.8617493705841068, -0.10150697116648157, -0.6301255626180996, -0.4692268808121256, -0.20904069472305195, -0.34495098503491073, -0.28834704946357026, 0.7852140074116801, 0.33793797706361745, 0.6022458462092866, 0.8258648763169462, -0.1127537793999368, 0.9267524061752795, -0.6477749218650949, 0.7947321719054972, -0.6757313561764998, -0.7974005544230082, -0.4909921265131597, -0.5982228493329163, 0.7233580645055543, 0.11336034779742836, 0.7536713334336927, -0.18675360190088283, -0.6230939612263837, -0.0198988713347887, -0.7420468229749868, 0.3338129002643437, 0.4917187535261128, 0.46958667512666663, -0.6470832685288979, 0.5738881182578524, -0.7676809203776462, 0.48939555340312124, 0.4634111328037446, -0.2599379787891927, -0.9995823532055771, -0.25764174182791383, -0.5027869102139738, 0.016265122776294893, -0.15357066944590797, 0.4245175789673462, 0.033878594106081336, 0.6604185869742297, -0.3252902930114718, -0.567211717385917, -0.4270127478917452, -0.7984268466592861, 0.1442193610501723, 0.7955154496314799, 0.4110267389200339], [0.0, -0.793051467724727, 0.9696369701760061, -0.3529219983269204, 0.098607905377135, 0.2848090043120281, 0.9708251071234637, 0.2372716614951739, -0.28565997828630735, 0.7635222053301838, -0.2623138790571038, -0.1747056319477219, -0.09207775017091137, 0.6381262687113954, -0.3076413281864618, 0.4416774956747037, 0.4399116223667588, 0.7675550919719002, 0.6622267175113145, -0.9875658001207867, -0.34417669257917805, 0.16281276365497413, 0.7135194930108892, 0.9557779690778343, -0.5590885445177296, 0.8116111208446811, 0.43187698294698146, 0.9212816777111842, 0.8812138576464439, 0.10477519597410095, 0.35519353145492366, 0.3016067184098858, 0.5662200895295513, -0.93442523880181, 0.39356548226331195, 0.1594712583917538, 0.7084660410683202, 0.24931444655211038, -0.21975254476231637, -0.8198033442992487, -0.5638298250051074, -0.19159689433863528, -0.2988628341201555, 0.8133837054994922, 0.2812269103347691, 0.3614589014066209, -0.8379654567460478, 0.11052273167807138, 0.133635933778154, 0.41017250725341886, 0.7239818003160698, -0.12067868151754128, 0.4454591213704417, 0.9135031829073359, -0.84907576107021, 0.5079367826698391, -0.6765236648624487, -0.49100543605755365, -0.8801392807516514, -0.9720374433976893, 0.44680027512320275, -0.6460730457448577, -0.7010486751451429, 0.4717231086081434, 0.29178835132405717], [0.0, -0.1906251776621595, -0.46085224393249313, 0.00954799004759151, 0.6226782503578284, -0.8211617974923773, 0.03957820474137107, 0.3085826825851174, -0.1419766791611037, -0.6011067908772331, 0.6050821141055482, -0.4795015042662095, -0.3128406795569094, -0.3004614029332061, -0.8375224629882166, -0.2228314671715563, 0.0887584011363384, -0.0003416000685894345, -0.6980620492316314, 0.676969395952851, 0.11875300391348356, 0.9736451985621684, 0.9530686900741598, 0.09046570186233341, -0.4120697789568826, 0.9182902685777973, 0.555126796059899, -0.40437291575434786, 0.45309609002614026, -0.18649579215111084, -0.9081958320838032, -0.33318587395902977, -0.6139802543760357, 0.505841457045372, -0.5308692007014236, 0.17869172275043405, 0.23265617469222263, 0.23306112830057038, 0.03219986457077238, 0.8336084643493878, -0.9957250856221065, 0.6706738647565497, 0.37377155548089375, 0.8534618714609511, -0.9085556770587409, 0.5923662559440952, -0.9639782970979242, 0.6600617028656397, -0.419337170622483, -0.15630086316340427, 0.15137950280080922, 0.8966663110557909, -0.2845171935330305, 0.8121454153408727, 0.9514639299272843, -0.8614428608980428, 0.8193442153815111, -0.7945901088085643, 0.619881574543126, -0.9319272308094947, -0.2921139814679385, 0.689279802784149, -0.4974035685322743, -0.8280763775749371, 0.8491969878063444], [0.0, -0.9496393866566581, 0.1243604010322136, 0.13020414643709477, -0.6909597698449852, -0.9221811199456443, 0.12822727964224806, 0.7562279265046913, 0.9380360734479329, 0.6533446580142104, -0.521020030748172, 0.048018281867011785, -0.5382801586722304, 0.6862376569892867, -0.4291447328424476, -0.8590497156370891, -0.8626774091472419, -0.7466907358180181, -0.5961641124248968, 0.4977459167493484, -0.09744049521750384, -0.9239390699679966, 0.1433560275407137, 0.49016948029598184, -0.10033114339428266, 0.1412100055657979, 0.030636312745160287, 0.4304657264153836, -0.4048860659924538, -0.31138308257178227, -0.321578293375733, -0.20806638163819796, 0.30766947291318353, -0.7321590692014096, 0.7060915401778153, -0.7518619406334202, -0.42435621771635595, 0.7435611897397918, -0.009928847994341277, -0.053794646339920225, -0.711498033904527, 0.9159574795131512, -0.8840980620023794, 0.6358877712692463, 0.7446590808403998, -0.6617877656036736, 0.8800850752612528, -0.3724627428157166, 0.8865998577402769, -0.24873277217670267, 0.7558308735592979, -0.835670336712221, 0.13607326863587627, 0.8670478177146496, -0.9359508583028318, -1.0023969160818964, -0.05124032773176438, -0.5956133170978353, 0.9718761541793964, 0.0384721862657854, -0.04818374494784305, 0.30945327206043666, -0.04127579929371696, -0.6199197961334741, 0.22111150751433972], [0.0, -0.8356032754744968, -0.5154944262169875, -0.8805590065152149, 0.706611441806921, -0.09286082303367445, 0.2601205273765014, 0.5294000935340925, 0.913930974431906, -0.41624859063661235, 0.06643695934276005, -0.9809936421714766, 0.10318598845619559, -0.7919182510765534, -0.7252138907969768, -0.9546971019467957, -0.22821869540856762, 0.16722451521125142, -0.22144165024444357, -0.26943164609112935, -0.1421127042757147, 0.7705690018102975, 0.12424672347248769, 0.05624719430690315, -0.3262939667857884, -0.8872614606886728, 0.3204733561228529, 0.19476543829453105, -0.5163003374688669, -0.3149882107743779, -0.12630221945825792, 0.013029626016677622, 0.09311278405476629, 0.8016424832155379, -0.15931921067604365, 0.5340661851234816, -0.44686189637065843, -0.16944228885293802, -0.6556660007717083, -0.9894412801006578, 0.7295783463654324, -0.41325082636265825, -0.7694923659762146, 0.6713350178254844, 0.4289749167355294, 0.3582978393307506, 0.9548562209396763, -0.6944236875821208, -0.31106411328892664, -0.13992707037137125, 0.7359877366736651, -0.9506776908603548, 0.5584103680312591, -0.8651726981947845, 0.3702492578230328, 0.20247764232109888, 0.9585551216724167, -0.6215985117668098, 0.1381821026482881, -0.8239964531388673, -0.326938807508867, -0.8574676742388869, -0.036712976556820986, 0.8387749683110665, -0.12687523104581194], [0.0, 0.45578580485799963, -0.5853907263320259, -0.12813124606835521, -0.6278111893808426, -0.8460904952010526, -0.896247839960736, -0.22219114848306315, -0.13732287374558635, 0.38823396275222055, -0.06936715294203498, 0.05639280328846122, -0.8854845140744164, -0.5497086013413389, 0.7247389052293163, -0.3237283472603102, 0.7308684867670873, 0.4089246475472161, 0.5930163868627032, 0.7884246567651093, -0.10967379881457039, 0.9410108698092249, 0.5526639484806755, 0.0009304518497201523, 0.5068835393135699, 0.07120005778383441, 0.4577123275389342, -0.05444055142282986, 0.37664435948616126, -0.2108368011484261, 0.295576150042086, -0.3253465799323599, 0.4341176829953008, 0.5057522214305574, 0.4029642107744646, 0.7857692140211133, 0.019849194353407634, 0.847655550245225, -0.8727410153169322, 0.8538454035329602, 0.6755831589648169, -0.44750958477354263, -0.9020581453928127, -0.7811205608806367, -0.10832603971208735, 0.45367237833581503, -0.12419181447409043, 0.6939250072768832, -0.34302910222601735, -0.1377424524033646, 0.8100225752063702, 0.43850541458291237, 0.01831509083313433, -0.07600482910383888, 0.7249743965818425, -0.8917334133616439, -0.8165043068522813, 0.24580921305171813, 0.5169155836655327, -0.522104057606144, -0.7863315741455507, -0.6123022874793539, 0.6339462216893481, -0.945255382748081, -0.9866168715247978], [0.0, -0.9795382045598019, -0.20183484202456597, 0.6902210469066056, 0.9749231925689147, -0.1366952409107437, 0.657606714688038, -0.2875067770744233, -0.33840318174287043, 0.5544635938233591, -0.3879494501905724, -0.2863634048183145, 0.9762850930287269, -0.10310085204307487, -0.8308085851581347, 0.43305590786559844, -0.8603271198364372, 0.4262166467734915, 0.5019882302215369, 0.41254090760988804, -0.7063523168162585, -0.9031972390196111, -0.15056562604139898, 0.9243559949121676, 0.03392304420373553, -0.14676816424873232, -0.5824070990733272, 0.8451145094277788, -0.2761465057055174, 0.8832923102026278, 0.4215059543472283, 0.07740582509551087, 0.49752257609403805, 0.27132937724553574, 0.5442716556045755, 0.22683095822321409, -0.1662069678093615, -0.5259467209285137, 0.12829913260760278, 0.482438651589717, -0.01398549152985954, -0.4578440515757227, -0.4769297408432768, -0.24135702151426608, 0.34180566480898683, 0.5071810657892478, -0.252066284105004, 0.24897616991211002, -0.10805513663889074, -0.11914715497198416, 0.04438011128117528, -0.56362561059716, 0.34433931775732846, -0.3656909226488227, -0.14379088545130325, 0.8349050921175005, -0.3763201027457885, 0.6239184463317582, 0.5137840037414102, -0.5888299518904501, -0.39094364380649177, 0.5161161993925234, 0.6776904085069761, 0.5339122070191115, 0.866043501462948], [0.0, -0.35337391991016615, 0.737971585909025, -0.8513179535715386, -0.31836356944906335, -0.6322760678314813, -0.361005188826333, 0.7869974284506573, 0.0011867986704816515, 0.1456298344170329, 0.780116075843323, 0.6453490618469269, 0.36472171096334055, -0.18802055390087824, -0.9820970374137977, -0.774102388622613, -0.30388064926217584, -0.4635757365520277, -0.3748117335595741, 0.30811975693529486, -0.8600971511138855, 0.2832185414757242, -0.7907183199124687, 0.6139948235297293, -0.1154289426615904, 0.3572260160125346, 0.7834705971650439, 0.8759701620805517, -0.16763923526982025, 0.7566983790216202, -0.4608117076333342, -0.4870749505064145, -0.09059070959665005, 0.4321138958157925, 0.9539232404399434, 0.13701062440768497, -0.7512975426885843, -0.14899873441797876, 0.9650226989943473, -0.7159366499679196, -0.23153169338940385, -0.5174378965927225, -0.46479112196569744, -0.4994227001507686, 0.6501698583571928, -0.6383802279588906, -0.5353737107382142, 0.555346764971603, -0.12119002669153629, 0.04419957293117357, -0.7833045848026025, -0.6146151672021778, 0.6420656762244616, 0.021367852899532483, 0.3934399619629558, -0.27298289944014786, 0.5039527864227414, 0.16839141877748381, -0.7479585525436082, -0.049167199755382036, -0.23725249031842832, -0.2551155068807548, -0.6376701491814272, 0.3551557724383083, -0.04413170973215257], [0.0, 0.4339309344512589, -0.15598907223232286, 0.5555004680754441, 0.006364658357663315, 0.8377949534812669, 0.7014549468286665, -0.1872851667696896, -0.7177864304610417, 0.9652406869880984, 0.349613360225389, 0.8265650435484972, 0.96223869066875, 0.956744969755309, -0.2210905133912249, -0.53406000964734, -0.4767714269535358, -0.2501402947848084, 0.7713596627430023, -0.0787631428062282, 0.27014590064926297, 0.1728532690301128, 0.20920954670634745, -0.8118744155254117, -0.09901887951249927, 0.8731036180216842, -0.5649999459966975, 0.9838529697304674, -0.5108875313212518, -0.715379514358729, -0.040705800449699285, 0.6210187310739208, 0.29694625864679236, 0.38029769089403814, -0.9576141360037549, 0.18316706456953588, 0.6346149243860372, 0.8356850423820713, 0.841835952022689, -0.30279854529201006, 0.18632720663782631, 0.3652625934669591, -0.4322170860924176, 0.32151268629993657, -0.3234670872649368, 0.35177706923377006, -0.3639110549039725, 0.4955008391458936, -0.5986332524160767, 0.8482137345255478, 0.42126550213217834, 0.3123754347166293, -0.27134102720432807, 0.6817625535907742, -0.35852690442276686, -0.5062353199290355, 0.8055283816731293, -0.5434583776392967, 0.9403201615588955, -0.4246262284758316, 0.8633041929347901, 0.9270580882872473, -0.7931692171209836, -0.7862264692123595, 0.7893583967271675], [0.0, -0.6626220221276878, 0.6253645914591603, 0.5900675907314042, -0.36621053527504394, -0.07758916734622645, -0.09744738123552459, -0.3782945689636267, 0.5759216610669975, 0.19093553780696687, 0.2612666378694609, -0.12504752740498054, -0.36631740480602, 0.1929284661918491, -0.5981263100869479, 0.5898096616534345, -0.02302111604434821, 0.7277433416370889, -0.30982296453977265, -0.5028645025875969, -0.19615161605639062, -0.8833535319162151, 0.2592859282706785, -0.2565629306346181, 0.7010646902177684, 0.548769922839337, 0.9411284888441785, 0.3261321047938881, 0.9209607358164498, -0.3514417122454474, -0.1259689094444987, -0.5834228582452937, -0.5412270419137762, 0.5741764721359943, -0.473580820095044, -0.2708528194363048, 0.1882821820850549, 0.5472810000614985, -0.1848245183100622, -0.7330240427839877, 0.2063597207597122, 0.9951694546767623, 0.7090778821899754, -0.39766370934242207, 0.85811921659264, 0.836720021078724, 0.11364709909736627, 0.9692961599299075, 0.21956479342733404, -0.25972994507558744, 0.863607852096206, 0.38365694778572906, 0.676329041393408, 0.7297379056953442, -0.091390726194342, -0.8335800454702517, -0.9698976419898596, 0.11180803141497181, 0.43091252694399573, 0.41082691273306277, -0.14981775674294073, 0.17577031907414106, -0.46664915714140354, 0.3054947618438, 0.18658308755920752], [0.0, -0.35806357862364996, 0.2542351418336204, 0.9061668601391296, 0.19755494811116212, 0.028604024978661057, -0.3234516292712107, -0.8435325945789226, 0.10299722557466831, 0.08882043455661542, 0.3988458391993997, -0.665330923337456, 0.20124153852399754, 0.07128289265309866, -0.028449550643475065, -0.27610733524635617, 0.6628893964530952, -0.33285855006276177, -0.37676859669481966, 0.8320389754362415, -0.13447093546478808, -0.6164441578489627, -0.4370751178261099, -0.890169485146449, 0.058938319798585305, -0.10117322176857238, 0.9505289169868598, 0.4089876686937021, 0.28840793857060265, 0.5066654766783509, 0.08527038331723902, 0.4879927283452514, 0.53545451650469, -0.9492386736543017, -0.7809499847249619, 0.6492355051012633, 0.7994404330109609, -0.47294707307484496, -0.9115995927063044, 0.1678448539639066, 0.055773059605263804, -0.653460537565265, -0.271523176223107, -0.4437707294565786, -0.2139841981823469, -0.052799282979472874, 0.28351898694853417, 0.08177472674454597, 0.2523922067193624, -0.46770159577583487, 0.5472158050658977, 0.704077871868216, -0.44250844400181244, 0.02650598687073935, 0.307188207727346, 0.8924584611062074, 0.1582494977985493, 0.1647788536492197, 0.5122646425717213, -0.016392133497300374, 0.640551597246012, 0.8067689199652971, -0.47657732557629506, 0.9940457466416667, 0.5086357719286208], [0.0, 0.8518759306405896, 0.5982441938049597, 0.3230453095259897, 0.15828861141106307, 0.41982612861027846, 0.8709581891299554, -0.1095422187411128, -0.4665839315727486, 0.5065917671844726, 0.23334417540697344, 0.3900699746015366, 0.597893918326301, -0.7431520408213318, 0.7218512634140016, -0.49097367647025675, -0.8970658050480903, 0.9624999053712618, -0.9309139200262547, 0.9870712105835852, -0.9640190566106475, 0.1591872449952028, 0.5309167066629814, -0.17109342921267456, 0.12711207081128892, 0.40910887193135154, -0.4613979916212287, 0.6422206974846453, -0.46294724608115007, 0.6520109789024299, 0.5712251206005101, 0.5237099295191057, 0.9215808259742548, 0.2637223715148027, -0.977433109984275, 0.7616420257568383, 0.7696274532180131, 0.7108626229811417, -0.3014888595365592, -0.1713731587487123, 0.5999382022094039, 0.13130792168712588, -0.16249035736768644, -0.2969666521177897, 0.9137240435962675, -0.6580588365122414, 0.6213578812066509, 0.6657362381644334, -0.5755763345344453, -0.8959801342472943, -0.9107363583376105, 